{"layer1": {"weight": [[0.1764052345967664, 0.040015720836722335, 0.09787379841057392, 0.2240893199201458, 0.18675579901499675, -0.0977277879876411, 0.09500884175255894, -0.01513572082976979, -0.010321885179355785, 0.04105985019383723, 0.014404357116087799, 0.1454273506962975, 0.07610377251469935, 0.012167501649282842, 0.04438632327454257, 0.033367432737426685, 0.14940790731576062, -0.020515826376580087, 0.03130677016509014, -0.08540957393017248, -0.25529898158340786, 0.06536185954403606, 0.08644361988595058, -0.0742165020406442, 0.22697546239876076, -0.1454365674598765, 0.004575851730144607, -0.01871838500258336, 0.15327792143584576, 0.1469358769900285, 0.015494742569691631, 0.03781625196021736, -0.08877857476301128, -0.1980796468223927, -0.034791214932615264, 0.015634896910398006, 0.12302906807277209, 0.12023798487844113, -0.03873268174079523, -0.03023027505753356, -0.10485529650670927, -0.14200179371789753, -0.17062701906250127, 0.19507753952317897, -0.050965218175165354, -0.04380743016111864, -0.12527953600499261, 0.07774903558319102, -0.16138978475579516, -0.02127402802139687, -0.08954665611936757, 0.0386902497859262, -0.051080513756887304, -0.11806321841224121, -0.002818222833865487, 0.04283318705304177, 0.006651722238316789, 0.03024718977397814, -0.06343220936809636, -0.03627411659871382, -0.0672460447775951, -0.03595531615405413, -0.0813146282044454, -0.17262826023316769, 0.017742614225375285, -0.040178093620826194, -0.16301983469660447, 0.04627822555257742, -0.09072983643832422, 0.005194539579613896, 0.07290905621775369, 0.012898291075741067, 0.11394006845433008, -0.12348258203536527, 0.040234164117754906, -0.06848100909403132, -0.08707971491818818, -0.05788496647644155, -0.031155253212737266, 0.0056165342229745445, -0.11651498407833566, 0.09008264869541871, 0.046566243973045984, -0.15362436862772239, 0.14882521937955998, 0.18958891760305832, 0.11787795711596508, -0.01799248358123509, -0.10707526215105426, 0.10544517269311367, -0.04031769469731797, 0.12224450703824274, 0.02082749780768603, 0.09766390364837128, 0.03563663971744019, 0.07065731681919482, 0.001050002072082048, 0.17858704939058354, 0.012691209270361992, 0.040198936344470165, 0.18831506970562545, -0.13477590611424464, -0.12704849984857336, 0.09693967081580113, -0.117312340511416, 0.19436211856492927, -0.041361898075974735, -0.07474548114407578, 0.19229420264803848, 0.14805147914344244, 0.186755896042657, 0.09060446582753853, -0.08612256850547026, 0.19100649530990338, -0.02680033709513804, 0.08024563957963952, 0.0947251967773748, -0.01550100930908342, 0.061407937034608034, 0.09222066715665268, 0.03764255311556294, -0.10994007905841946, 0.029823817420605598, 0.13263858966870304, -0.06945678597313655, -0.014963454032767077, -0.04351535517216375, 0.1849263728479342], [0.06722947570124355, 0.040746183624111046, -0.07699160744453165, 0.05392491912918173, -0.06743326606573762, 0.0031830558274351184, -0.0635846078378881, 0.06764332949464998, 0.057659081661494097, -0.02082987555779949, 0.03960067126616453, -0.10930615087305058, -0.14912575927056057, 0.043939170126453694, 0.016667349537252903, 0.06350314368921064, 0.23831447748639423, 0.09444794869904138, -0.09128222254441587, 0.1117016288095853, -0.13159074105115212, -0.0461584604814709, -0.006824160532463124, 0.17133427216493669, -0.074475482204844, -0.08264385386590145, -0.00984525244254323, -0.06634782863621073, 0.1126635922106507, -0.10799315083634234, -0.11474686524111025, -0.04378200447444341, -0.04980324506923049, 0.19295320538169858, 0.09494208069257609, 0.00875512413851909, -0.1225435518830168, 0.08443629764015471, -0.10002153473895647, -0.15447710967776118, 0.11880297923523019, 0.03169426119248497, 0.0920858823780819, 0.03187276529430212, 0.08568306119026912, -0.06510255933001469, -0.10342428417844647, 0.0681594518281627, -0.08034096641738411, -0.06895497777502006, -0.04555325035173432, 0.001747915902505673, -0.035399391125348394, -0.13749512934180189, -0.06436184028328905, -0.22234031522244269, 0.06252314510271875, -0.16020576556067478, -0.11043833394284507, 0.0052165079260974405, -0.07395629963913133, 0.1543014595406736, -0.12928569097234485, 0.026705086934918295, -0.003928281822749561, -0.11680934977411975, 0.052327666053175376, -0.017154633122224813, 0.07717905512136675, 0.08235041539637315, 0.216323594928069, 0.1336527949436392, -0.03691818379424436, -0.02393791775759264, 0.10996595958871132, 0.06552637307225978, 0.0640131526097592, -0.16169560443108344, -0.0024326124398935636, -0.07380309092056887, 0.027992459904323825, -0.009815038964295794, 0.0910178908092592, 0.03172182151913021, 0.07863279621089762, -0.04664190967359431, -0.09444462559182504, -0.04100496932025485, -0.0017020413861440595, 0.037915173555508185, 0.22593089506908523, -0.00422571516606427, -0.0955945000492777, -0.034598177569938646, -0.04635959746460942, 0.04814814737734622, -0.15407970144446248, 0.006326199420033172, 0.01565065379653756, 0.023218103620027578, -0.059731606896536275, -0.0237921729736007, -0.14240609089825315, -0.04933198833621941, -0.054286147601671775, 0.041605004626142555, -0.11561824318219127, 0.07811981017099934, 0.14944845444913687, -0.20699850250135327, 0.0426258730778101, 0.06769080350302456, -0.06374370255522291, -0.03972718143287977, -0.013288057758695564, -0.029779087940172835, -0.030901296904712224, -0.16760038063299768, 0.115233156478312, 0.10796185920368212, -0.08133642592042029, -0.1466424327802514, 0.05210648764527586, -0.057578796981306614, 0.014195316332077969, -0.03193284171450952, 0.06915387510701866, 0.06947491436560059], [-0.07255973784635843, -0.13833639553950555, -0.1582938397335082, 0.06103793791072052, -0.1188859257784029, -0.050681635429868754, -0.059631403845050814, -0.005256729626954629, -0.1936279805846507, 0.018877859679382856, 0.052389102383420566, 0.00884220870446614, -0.031088617169847173, 0.009740016626878342, 0.039904634564013025, -0.277259275642665, 0.19559123082506943, 0.03900933226879265, -0.065240858238702, -0.03909533751876011, 0.049374177734918846, -0.011610393903436654, -0.20306844677814945, 0.20644928613593194, -0.011054065723247262, 0.10201727117157998, -0.06920498477843912, 0.15363770542457977, 0.02863436888922796, 0.06088438344754508, -0.10452533661469549, 0.12111452896827009, 0.06898181645347884, 0.13018462295649985, -0.0628087559641579, -0.048102711846078776, 0.2303916697683942, -0.10600158227215473, -0.013594970067832083, 0.11368913626026954, 0.009772496771485562, 0.05829536797532936, -0.03994490292628752, 0.037005588784751874, -0.13065268517353165, 0.16581306796181883, -0.011816404512856976, -0.06801782039968504, 0.06663830820319143, -0.04607197873885533, -0.13342584714027536, -0.13467175057975553, 0.06937731526901325, -0.01595734381462669, -0.013370155966843917, 0.10777438059762628, -0.11268258087567436, -0.07306777528648249, -0.03848798091812755, 0.009435158931707401, -0.004217145129057894, -0.028688719238990763, -0.006162640209564741, -0.01073052762911747, -0.07196043885517929, -0.08129929885540774, 0.027451635772393953, -0.0890915082995528, -0.11573552591908537, -0.03122922511256933, -0.01576670161638159, 0.22567234972982095, -0.07047002758562337, 0.09432607249694948, 0.07471883342046319, -0.11889449552037362, 0.07732529774025998, -0.11838806401933177, -0.2659172237996741, 0.06063195243593808, -0.17558905834377195, 0.04509344618059149, -0.06840108977372165, 0.16595507961898723, 0.10685093993160091, -0.04533858038513877, -0.06878376110286824, -0.12140774030941207, -0.04409226322925914, -0.02803554951845091, -0.03646935443916854, 0.0156703855272364, 0.05785214977288784, 0.0349654456993174, -0.0764143923906443, -0.14377914738015785, 0.13645318481024712, -0.06894491845499377, -0.06522935999350192, -0.05211893123011109, -0.18430695501566485, -0.04779740040404867, -0.047965581400794766, 0.062035829834351255, 0.0698457149107336, 0.00037708890862693403, 0.09318483741143037, 0.0339964983801262, -0.001568211160255477, 0.0160928168298223, -0.019065349358139937, -0.039484951403345035, -0.026773353689396647, -0.11280113314700069, 0.028044170531629598, -0.09931236109295807, 0.08416312640736365, -0.024945858016094887, 0.004949498165009074, 0.04938367762809564, 0.06433144650629279, -0.15706234086334528, -0.020690367616397174, 0.08801789120807824, -0.16981058194322546, 0.038728047539506344, -0.22555642294021894, -0.10225068436356036], [0.00386305518401881, -0.1656715102321954, -0.09855107376841507, -0.1471835007463587, 0.16481349322075597, 0.016422775548733396, 0.05672902778526694, -0.02226751005151545, -0.03534317487571991, -0.16164741886510325, -0.029183736274786282, -0.07614922118116234, 0.08579239242923364, 0.11411018666575734, 0.14665787155741777, 0.0852551939461232, -0.05986539369229861, -0.11158969859603945, 0.07666631816450861, 0.035629281747228896, -0.17685384506770307, 0.03554817927437691, 0.08145198224878664, 0.005892558918162996, -0.018505367100934155, -0.08076484876163557, -0.1446534699563388, 0.08002979493400275, -0.030911444477170882, -0.023346666154369273, 0.17327211869191333, 0.06845011068591904, 0.03708250012811021, 0.014206180518723566, 0.1519994860765773, 0.17195893074161947, 0.09295051114795282, 0.05822245913979243, -0.20946030712061448, 0.012372191423350658, -0.0130106954193704, 0.009395322938556872, 0.09430460873225179, -0.27396771671895565, -0.05693120534701851, 0.026990435494076138, -0.046684554605276256, -0.14169061131262595, 0.08689634868967955, 0.027687190584612803, -0.09711045704444847, 0.03148172045158238, 0.08215857120497959, 0.0005292646299360854, 0.08005648034309969, 0.007826017516166135, -0.03952289826543544, -0.1159420516399913, -0.008593076697161273, 0.01942929380457717, 0.0875832761587331, -0.011510746848722673, 0.04574156062209908, -0.09646120137337284, -0.07826291558275252, -0.011038929902688776, -0.1054628463985014, 0.08202478373246813, 0.04631303293186071, 0.027909576439245343, 0.03389041252159446, 0.20210435614847977, -0.04688641879667957, -0.2201441285500558, 0.01993001968964652, -0.00506035409616659, -0.05175190425104033, -0.09788298593587699, -0.0439189521802148, 0.01813384292178213, -0.050281670064253825, 0.24124536795437487, -0.09605043816331481, -0.07931173627076717, -0.22886200400145285, 0.0251484415021537, -0.20164066277997603, -0.05394546333745014, -0.027567053456055698, -0.07097279658468883, 0.1738872677454511, 0.0994394391315499, 0.13191368763015757, -0.08824188185499186, 0.11285940645145685, 0.04960009463439622, 0.07714059486768456, 0.10294388287827672, -0.09087632459590532, -0.04243176209779015, 0.08625960113284512, -0.2655619092974933, 0.15133280825732054, 0.055313206420758404, -0.004570396066023485, 0.02205076557571733, -0.10299352833089766, -0.03499433645891047, 0.11002843382203738, 0.12980219723262212, 0.269622405256358, -0.007392466628041514, -0.06585529668050037, -0.05142339659399889, -0.10180418752873649, -0.007785475594085076, 0.038273243001226816, -0.003424228053195387, 0.10963468456657986, -0.023421580134453654, -0.03474506524985633, -0.058126847686032525, -0.16326345262344955, -0.15677677243084542, -0.11791579306376879, 0.13014280716647608, 0.089526027288993, 0.137496406639299], [-0.13322116545945017, -0.19686246897860205, -0.0660056320134083, 0.0175818953296028, 0.04986902749098275, 0.10479721559680528, 0.028427967080721463, 0.17426687806556312, -0.02226056809483205, -0.09130792180417964, -0.16812182154944336, -0.088897135809545, 0.024211796098512303, -0.08887202573536308, 0.09367424635352573, 0.1412327706037443, -0.2369586905226603, 0.0864052300497648, -0.2239604058661737, 0.04014990550902875, 0.12248705641936597, 0.006485610634357618, -0.12796891732042395, -0.05854312042777726, -0.026164544571090072, -0.018224478378994293, -0.020289684076666707, -0.01098827793093138, 0.02134800489101689, -0.12085736537332213, -0.02420198298702195, 0.15182611703557056, -0.03846454231425178, -0.04438360931551978, 0.10781973037142378, -0.25591846663440965, 0.1181378601288286, -0.06319037580051673, 0.016392857245258664, 0.009632135592119683, 0.09424681192203938, -0.02675947462353477, -0.06780257815644504, 0.12978457906510987, -0.23641738171411802, 0.002033418170524325, -0.13479254226291204, -0.0761573388256559, 0.20112566814631372, -0.0044595426455857025, 0.019506969715138118, -0.17815628557055915, -0.07290446587946957, 0.019655740072878493, 0.03547576931132181, 0.06168865543932788, 0.0008627898917576322, 0.05270042084546597, 0.0453781912635684, -0.18297404110045315, 0.003700572191014953, 0.07679024077327037, 0.058987982073451954, -0.03638588099707899, -0.08056265075393679, -0.11183119243216322, -0.013105401154141234, 0.11330798795597219, -0.19518041014816023, -0.0659891729729498, -0.11398024554267741, 0.07849575212405002, -0.055430962657130094, -0.04706376581547914, -0.0216949569936649, 0.044539325089479734, -0.039238899814963674, -0.3046143054799927, 0.05433118913875197, 0.043904295767204254, -0.021954102833121325, -0.10840366206719346, 0.03517801106813583, 0.03792355335355868, -0.047003288270087484, -0.021673147057553865, -0.09301565025243214, -0.017858909208732916, -0.1550429345083481, 0.04173188210318355, -0.09443684908242939, 0.023810314783231215, -0.14059629162678994, -0.059005764586953974, -0.011048940506592783, -0.16606998118692634, 0.011514787314009216, -0.03791475628799228, -0.17423561978092306, -0.13032427541123157, 0.06051200840821667, 0.0895555985551324, -0.013190863977996707, 0.04047618120404975, 0.022384356331291072, 0.032962298212773807, 0.1285984007080293, -0.1506998398214272, 0.06764607323616233, -0.03820089555778203, -0.022425893425164035, -0.030224973045507003, -0.03751471166612839, -0.12261961917830191, 0.018333919925760125, 0.16709430327888575, -0.005613302044875711, -0.00013850427350957262, -0.06872990371566635, -0.011747454641811149, 0.04661664260340308, -0.037024244070434295, -0.04538040410520011, 0.04032645401632468, -0.09180047698190455, 0.025249662707687245, 0.08203217972614218, 0.13599485416794843], [-0.009038200727694682, 0.13675972398067135, 0.10344098864815182, -0.09962126403710662, -0.1217938511593151, -0.030496363785442043, 0.10289354925948542, -0.007228700756000491, -0.060065755765778855, 0.1552243180048561, 0.02869044880033464, -0.23205942757907416, 0.031716062629268876, 0.05200406145708678, 0.02256086544711038, 0.04497121002319926, -0.006727560892298173, -0.13183958696447343, -0.037070400322045345, -0.09456157955562915, -0.0932740910794378, -0.12630683491022754, 0.04524890926396464, 0.00978961454126271, -0.044816536268070806, -0.06493379277303882, -0.002342310502145217, 0.10791947281124892, -0.20042157154989151, 0.03768765208508928, -0.05457119740177824, -0.18845858449794478, -0.19457030831639588, -0.09127834941352919, 0.02195095557930453, 0.039306293398009166, -0.09389815726777853, 0.10170209914132447, 0.14229834965161062, 0.03960865849565602, -0.05914026678081108, 0.11244191845103682, 0.07553956956633384, 0.0867407411354918, -0.06564636749715315, -0.28345545052747023, 0.21167910214836755, -0.16108784034499338, -0.003576807186022113, 0.23807453512197504, 0.0330576756274374, 0.09492464735582357, -0.1502396569381713, -0.17776669547337065, -0.053270279197955454, 0.10907497344345002, -0.034624944764731, -0.07946363210714988, 0.01979672899449675, 0.10819352184772653, -0.14449401990733718, -0.12105429941233517, -0.07886692545093663, 0.10946383747120914, 0.02348215259487319, 0.21321534105704437, 0.0936445725831116, -0.0035095176869670386, 0.1265077838088766, 0.021149701273187802, -0.07049213525074449, 0.06799748442451024, -0.06963266538610828, -0.02903971008038668, 0.1327782695957983, -0.010128148621739936, -0.08031413873416283, -0.046433769143549165, 0.10217905855886732, -0.05525406734167292, -0.038687084685064654, -0.051029273963362855, 0.018392549434030996, -0.03854897603756083, -0.1601836048972537, -0.08871809418450403, -0.09327890415064383, 0.12433193844551549, 0.08126740421090424, 0.0587259379399826, -0.050535831726440994, -0.08157915419939714, -0.05075176016573571, -0.1051880102551674, 0.24972003915870072, -0.22453216483714022, 0.056400853507380916, -0.12845522979925272, -0.010434349149469266, -0.09880019424937345, -0.11776289624826308, -0.11401963009349617, 0.17549861537420586, -0.0132988422309592, -0.07657021944780863, 0.055578696408287304, 0.0010349314566299353, 0.07200337593416528, -0.182425665593783, 0.030360390446200144, 0.07726948371023817, -0.16615982911145638, 0.04481952844233125, 0.16961815728281607, -0.0014857703354702718, 0.08214059370248113, 0.06705704503109099, -0.07075056975105769, 0.003976673458649517, -0.15669947108616025, -0.04513030371025262, 0.026568797496623595, 0.07231004937377981, 0.002461212524791162, 0.07199837301431654, -0.11029062129553698, -0.01016972745548716, 0.0019279384513077218], [0.18495912466796366, -0.021416665620008424, -0.049901663799418294, 0.002135122384354861, -0.09191134448699438, 0.019275384906521618, -0.03650552165462577, -0.1791327548041184, -0.005858655113386085, -0.031754309393019924, -0.16324233020679835, -0.006713415461452177, 0.14893559620744803, 0.05213037482757137, 0.061192719273115787, -0.13414967255830426, 0.04768983689222225, 0.014844958138007808, 0.052904523833443164, 0.04226286217088257, -0.13597807255038138, -0.004140081155796743, -0.0757870860425166, -0.00500840942848221, -0.08974009269018306, 0.13124703671409962, -0.08589723884443423, -0.0898942156465536, 0.007458640654355354, -0.10770990694039949, -0.042466330243286575, -0.0829964597537962, 0.14111720638896116, 0.07858038268311726, -0.0057469518465394645, -0.03912170521740163, 0.09409176145751134, 0.04052040803228881, 0.049805240468285675, -0.0026192237344250485, -0.16882300277714324, -0.011246598255955273, -0.05324899192090678, 0.06450552734598769, 0.10118424329941891, -0.06579510447611686, 0.04683852342770517, 0.17358789976857134, -0.0667712720570559, 0.1681921740073138, -0.08525858471706471, 0.0022959755607951447, -0.0011145611841841252, 0.0011498899870062375, -0.08376780419079453, -0.059118310376442974, -0.06677202863593994, 0.03269625954044574, 0.03300351145103116, 0.22259443317382588, 0.13709890062911215, -0.05098432421384791, 0.032486961579618605, 0.09971179807917596, 0.0030601824338517807, -0.0069641578446935585, 0.005157494276988904, 0.08672766288084278, -0.08483205228052326, -0.03256694688201742, 0.047043314484648185, 0.031144707155415553, 0.023958275985639134, -0.036980116630380325, 0.0972535789142537, 0.21338682472045375, 0.04064154936762063, -0.019317670154983993, 0.07557402888945426, -0.053913263675299, -0.07496903447028967, 0.0032808747613711805, -0.2582796632969945, -0.11539503636520095, -0.03479618559208458, -0.13533888581477135, -0.10326431018921296, -0.043674833745800744, -0.16429652935306094, -0.040607179625983196, -0.05352701645328445, 0.002540520838501602, 0.11541840304940193, 0.01725044164928659, 0.0021062021342063623, 0.009945445703071175, 0.022739277512112847, -0.1016738648609769, -0.011477532477079819, 0.030875124183661312, -0.13707599825430605, 0.08656529228158533, 0.10813760344581898, -0.06313759884493889, -0.024133779145310456, -0.08781903428100732, 0.06993804835878172, -0.10612222874459093, -0.022247701024292032, -0.08589199078076716, 0.00509542770112895, -0.17942292714897212, 0.13264616423656936, -0.09646064242062641, 0.005989468311627605, -0.02125230447703092, -0.07621145119224981, -0.08877801366359354, 0.09363985435524597, -0.05256405931019397, 0.02711701846373109, -0.08014968853943749, -0.06471814318477608, 0.047224715008784876, 0.09304084961111164, -0.017531640232701994, -0.1421919871640437, 0.19979560797500048], [-0.08565493082342096, -0.15415873996717877, 0.2594424587768152, -0.04040322938509372, -0.14617326882614082, -0.06834397667886818, 0.0367544896022269, 0.019031155759393972, -0.08517291972535901, 0.18227236001279595, -0.05215796779933732, -0.11846865904115521, 0.09606933984606597, 0.13290628465396823, -0.08174930976162265, -0.14013472930393106, 0.10304382674156048, -0.2047323613057962, -0.12266216593966156, 0.09674461500502352, -0.005535254802238957, -0.026393734859268787, 0.035281660649437836, -0.01527744235454087, -0.12986867221630902, 0.12760753460061877, 0.13250140528868154, 0.02053325637779597, 0.004513401543201028, 0.2339624806020058, -0.027643284501583723, -0.025957698183403946, 0.03644812492405056, 0.14713219561423382, 0.15927707544174838, -0.025857263167677128, 0.030833124595934527, -0.1378083467064077, -0.031197610791621297, -0.08402903954793066, -0.10068317522989839, 0.16815767162673279, -0.0792286661806145, -0.05316059080114549, 0.03658487879168582, 0.12978252669735854, 0.048111512638883545, 0.2759355114021582, -0.007466797825114957, 0.025871644022974608, 0.027560067398405635, 0.14350493867891545, 0.05072389511096153, -0.01162297003871491, -0.09474885949068795, 0.02444434559616326, 0.14013448312919596, -0.04103817936578706, 0.05289436184165822, 0.024614778868484417, 0.08635196583813147, -0.08047537406378694, 0.2346647030526562, -0.12791611070282582, -0.03655510899860373, 0.09380925409056456, 0.029673317249411336, 0.08299861590811032, -0.04961023339825624, -0.007480498268034107, 0.0012231983638817388, 0.15692596145359045, 0.0690429024383049, 0.07966721083646715, -0.06579260925367952, 0.09688826385630508, 0.022558166356880353, 0.13891453156779274, 0.2014060154918468, -0.030676577602700456, -0.04063031304450626, -0.08640449911023695, -0.014357951171632057, -0.03820254489503836, 0.03595043995710102, -0.014456681693373594, -0.03615992807816198, 0.10645851361278519, -0.09378802311514517, 0.04331079531513437, -0.04059417271884835, 0.07243685048699644, 0.13852615467222304, -0.03030982534240727, 0.04410329072731514, 0.017879286573317985, -0.07994223995430966, 0.024078750974193847, 0.02891205052788122, 0.04128708204461747, -0.019839889682004577, 0.009419230031014657, -0.11476109448431354, -0.035811407547985674, 0.0555962679709798, 0.08924738873315304, -0.042231482412527076, 0.010471402943328434, 0.022805332512406722, 0.020147994670443287, 0.054077358530039026, -0.18180776303835697, -0.004932407014757259, 0.02390336012467649, -0.10003303489537055, 0.167398570701071, 0.016155926723816796, 0.15634047450289296, -0.07905230218330772, -0.09073001215253271, 0.022425222096568193, -0.16786883628286567, 0.021496559062609354, 0.009721923200291804, 0.10156652815421013, 0.07010413411650972, -0.0417477349885034, -0.10974966547702447], [0.17123052213432965, -0.079211502056515, -0.10455245570694659, -0.10848560594614452, 0.11173053155366647, -0.05189002044248521, -0.07537044661806008, 0.013768982590334733, -0.020694471055729104, -0.0678095460786247, 0.07539914669784797, 0.10653154920979949, 0.09853175089398669, 0.0766919669661199, 0.04026255311300352, -0.1775887999961829, 0.16692508063769687, 0.030198921035755295, 0.060815642760064154, 0.11149623229474022, 0.14333525028819918, 0.04183980113091926, 0.04355461592956536, -0.059922427745971944, 0.00330897511387602, -0.08541612608143545, -0.07199405321418947, -0.08935744023141913, -0.015602389099728737, 0.10490931879200104, 0.317097477329018, 0.018949963754791348, -0.134841308775612, 0.1264983329856256, -0.030078387647602713, -0.0660608593976992, 0.02098494779230553, -0.12406245995562276, 0.02224631640086068, -0.008837552319915497, 0.009837790681547567, 0.03814162542091709, 0.006749225724080681, 0.0016338084112892495, 0.028431451899794454, 0.04154006261711268, -0.10314824603152578, -0.14299912586854485, -0.006163805217221476, -0.1432735489934108, 0.008753147092167088, 0.09387468756823102, 0.06071116719160459, -0.10481704068254732, -0.08602624519575189, 0.03283012950007554, -0.040129780513351004, -0.0316655295052107, 0.05969064812479539, -0.09872866934576524, -0.040123470991118244, -0.08000824760846013, -0.10431294980353556, -0.08570781886711648, 0.06774621693464117, 0.005182038948242157, -0.08791606288350749, -0.023110160759299656, -0.1638807307122178, -0.07333128075836658, 0.21495745348672868, -0.00902438496657506, 0.07316589270303925, -0.006548837514448298, 0.034816923524180865, 0.0663258089679174, -0.11046165975264709, -0.003093625727395894, 0.15788651944164883, -0.0795500550053291, -0.05664398537322193, -0.030769127736700177, 0.026902407317624666, 0.05249178636458827, 0.12674116548186568, 0.04994982334686595, -0.006205312579833404, 0.1259167129610814, 0.07041110221415822, -0.14956795162570163, 0.25263682403559984, 0.17699213881967338, -0.01682142227670741, 0.037791010173847506, 0.13243587499958392, -0.017220079269688264, 0.07303517903770194, 0.11045784735714766, -0.10148259077344411, -0.060233185358286215, 0.09214083978105814, 0.04608144771488305, 0.0923796560313947, -0.013256801465371804, -0.0289005210954233, -0.19986394755833728, -0.11460004265074433, 0.00470660946584937, 0.08245572195642364, 0.05311783665356953, -0.012824197402770202, -0.027177156649069667, 0.021717963263828015, 0.007821118109215219, 0.1404545514939712, 0.014644077047824985, -0.14812459621972984, -0.1272558135032317, 0.15187593369635802, -0.11711604614500803, 0.07644974530335336, -0.02683727352093812, -0.01697582939024855, -0.013413278276842012, 0.12213849594591984, -0.019284182854396467, -0.0033319282845152955, -0.15308034973994927], [0.02066905117080033, 0.05310425069780597, 0.023914558065378705, 0.13978962610867354, 0.005517135478023174, 0.029897745611901762, 0.16485040102681792, -0.1550014189358148, -0.04558253477993689, 0.14261587520192662, 0.09361291483110824, 0.06783800988404703, 0.08326507394644783, 0.03270662091210221, 0.16315974275322717, 0.03777591697307179, 0.02398671058952786, 0.015895867412564327, 0.019286395555038603, -0.1157017280815868, 0.07706730544633433, -0.013043973378332734, 0.1821915097860406, -0.00756504705884229, 0.04209182841756566, 0.024660218626133445, -0.06255570351092533, 0.09921368285185059, 0.19050636405600177, -0.0014777219659844777, -0.03004787855854223, -0.03550287310553741, -0.18923618933173414, -0.017781314370301254, 0.025099811600832397, 0.10547579251802829, 0.0960047741149928, -0.04164990824366925, -0.027682299477388834, 0.11239053056144391, -0.017346389707287913, -0.0510029539755617, 0.13925184494342724, 0.10375856670506341, 0.0018791791774257804, -0.05937774477786675, -0.2011880319244709, 0.058970360557472394, -0.08963697225521802, -0.1962732009140752, 0.1584820527349018, 0.06479677910098884, -0.11390081931169654, -0.12144013829592591, 0.08709617821716197, -0.08779706165358703, 0.12961498675278835, 0.06164593126261553, 0.053659652056682355, 0.04046954556143004, 0.01914508720239118, 0.08805111991771106, -0.045408036251560514, 0.00859519734343847, 0.07519465876771958, 0.05629897185861278, -0.11949868052686603, -0.0500409667304264, 0.025280350541915454, -0.040801470903989695, 0.17746585609733334, -0.03931531947541129, -0.016221844757669086, 0.07694301781773039, 0.03305327432349158, -0.014527445720476923, -0.07564935288807484, 0.030151405739676618, 0.10390964403783927, 0.04790952240982286, -0.07781835214561222, 0.1736774956976711, -0.14465778900358944, -0.1582685641802789, 0.09605572244572284, 0.02258404786026901, -0.05494985463040403, -0.10985707275553297, 0.23207998392802984, 0.011709087215544195, 0.05342011708457715, 0.03178850972381816, 0.043480795773115796, 0.05400944605248059, 0.07324240097548762, -0.037522240076067276, -0.02916419863518446, -0.17410228083589016, -0.07803044065015395, 0.02711127964467149, 0.10450233755026905, 0.05990395263761841, -0.034069234387793045, -0.12631729120851543, -0.2777359145427433, 0.11517339747807992, -0.05892289865101498, -0.04484650062040593, 0.013157396790806873, -0.140556004739189, -0.03497821801115369, 0.2023471949769974, 0.050538693857734275, 0.03592491565134564, -0.15824944779817585, 0.22436018945826405, -0.14227949086263428, 0.19223247554443987, -0.21150560151878076, 0.14053654387244205, 0.16180542690002256, -0.08244091213278347, 0.04225803722728828, 0.05474805721046651, -0.0813794483231306, -0.14491176107369305, -0.13177173431407654, 0.05410082199598076], [-0.008511560251940574, -0.056430103330216044, 0.09667680111664602, 0.05080679093914778, -0.07554627263656334, -0.12012015190173893, 0.052326173868807696, -0.053758336855806194, 0.009920486253150243, 0.15762989726277177, 0.050232824007477965, -0.08622669997532367, 0.01606611898197728, -0.09526449528153878, 0.1608522155948724, -0.05615787496032209, 0.020727074697361864, 0.0307732574679432, 0.015925046837370244, -0.19585489551365387, -0.14464210639833286, -0.04523502755690917, 0.03194318333315307, -0.013777921428577068, -0.09571474731510168, -0.1348424319121701, -0.04015575444993436, -0.046847604467972315, 0.051283645759275666, -0.03263184621583181, 0.06027076564293296, -0.05946497697204054, -0.025595766921426833, -0.03480463796426194, -0.07823669669020898, 0.06251186564337302, -0.08135959970945071, -0.0521641509970619, -0.0073119645948197245, -0.129737965595674, -0.03249349583204991, -0.07113063597427886, -0.03881541924822496, -0.005992800267109063, -0.07999136231406648, -0.02200757798203556, 0.13086687523521792, -0.0025798558254487114, 0.11452621730192247, 0.034649444200676074, 0.07741606098188164, -0.07744589687708259, 0.010490716508551273, 0.013391292261547592, -0.061262573887493565, -0.08228283242942819, -0.14902653879072983, 0.1496139636951632, -0.09724028893524977, 0.13462210732223, -0.04674931736578535, -0.08624932997247339, 0.06225191403049977, -0.06311919417468571, 0.0568458918924277, -0.03328117648522096, 0.04804244961177868, -0.0968186063907105, 0.08313510579847683, 0.04879726826630046, -0.09196506900626618, 0.2642935721014742, 0.05401230264004941, 0.22904670705305388, 0.16002678187487593, -0.01888347802177838, -0.04122717546045429, -0.04034591834208012, -0.18300285504278102, -0.06958351193495474, 0.024676602397997058, 0.15259575608848086, -0.07727718829782021, 0.08820565993630107, -0.1252593341503319, -0.05863200252111324, -0.0457640594289526, 0.03718110814974935, 0.045730964672081126, 0.09623417448143452, 0.07708369604049367, 0.024316821540249174, 0.03903649435086224, 0.15885306910975328, -0.05109261812322631, 0.07747283190671622, -0.18081439264982516, 0.04113342428976086, -0.048324954247910744, 0.0002571182431510025, 0.10400862450537032, 0.016464380952639763, 0.08851875412089273, 0.1473764815138405, 0.03890939688657206, 0.11710410646204883, -0.03265609776792077, -0.0008209882269614045, -0.0522619416398478, 0.1042977594646376, 0.04140913537935951, -0.05072344618949226, 0.01546688336463322, 0.10415683888185819, -0.003926799103795319, -0.09489328108497636, 0.013191175578741221, -0.198056559106894, 0.0768770644399475, -0.04213275873246805, -0.04693107362791068, 0.08756956787795067, -0.13651628772251687, 0.1947098642820358, -0.04802420417382233, -0.05232509433848951, 0.10212247431671631, 0.07086952731104267], [0.24512297190750762, -0.021120598363152, -0.012040663866440975, -0.14793159799632535, -0.03321022773488252, -0.07214312955717558, -0.04487670131054992, -0.17441877565539554, 0.16606075598945141, -0.14166034824256407, -0.2802202798391713, -0.11884244215830193, -0.0603839552796151, -0.11495540632571183, 0.10983035407325124, -0.013783917859609385, 0.0025385604406458987, 0.06103917643054128, 0.0286012526978118, 0.0978567297446043, -0.11094775536361452, -0.05475181006794318, 0.06659671460695378, -0.25345544620842303, -0.13751844793172407, 0.05009922321799466, -0.048024903499492545, 0.09361075501096977, 0.08091802968531628, -0.11980928801910383, 0.04066570874668812, 0.12016978556675065, 0.014743440165097191, -0.09774648772458693, 0.08793899419133701, 0.06354245265539955, 0.054261078349879636, 0.07159388934369917, -0.2994612860227619, 0.08809375610809717, 0.18081318105789757, 0.043663847462929305, 0.019272899649972683, 0.06964386733914393, 0.03382254736851153, 0.0651781261700616, 0.00014710002454108065, -0.07667048545369004, -0.10043227122146135, -0.09981917282318642, -0.13730425509508953, -0.10677420110191066, 0.17612661274198632, 0.07540956636562428, -0.06250273906846714, -0.03903926939855081, 0.011255753090645429, -0.06555450294843582, 0.006751685717432486, 0.07776041379029121, -0.0035742733548173485, 0.03360157426619922, 0.0886491539359616, -0.02721317560182082, 0.028479059913436317, -0.03093775928833614, -0.00285288698344164, -0.032473026508296, -0.05288698535561153, 0.017371185298702345, 0.056654531581821245, 0.014630444600104426, 0.0498726958311932, -0.07379317802412298, -0.12037351921997795, 0.04170435029676036, 0.06878813911747546, 0.004985726659982265, 0.13480357804247187, 0.09076987979878987, 0.26805708407690004, -0.020080851399566557, -0.09988487960953682, -0.07401367907395136, -0.05654978063746563, 0.047603138343811455, -0.2158068563961257, 0.13185510180908366, -0.023929659114234416, -0.02467935577887518, -0.10793431660249952, -0.011422555145018021, 0.0013239767667533554, -0.012194492760027728, 0.03390592559424304, -0.05896320419510298, -0.08958157604108272, 0.05483281304979799, 0.009866745381579568, 0.01971810551973674, 0.10590272544419664, -0.10225643912606858, -0.08552404572508643, 0.12572196508289943, -0.14828833575740427, -0.13094121463310143, 0.08178618311849958, 0.023820019202203863, 0.010523213705927585, -0.009165940810038319, 0.0031267547027569484, -0.009211211469195592, 0.13554427025944182, -0.039814812875007516, -0.016137353627777917, 0.17944488052250737, 0.00275097020298358, 0.22320163895251777, -0.010497970101895356, 0.13674149824601586, -0.1655344038309678, 0.01536444608156664, -0.15844735631509355, 0.08444543066045863, -0.12128678162090248, 0.02837695543833455, -0.028219587669043512, -0.1158203185184029], [-0.16193599828975425, -0.05110404635801098, 0.1740629445895331, -0.02934850548893775, 0.09172215421158561, -0.005704286766218815, 0.08767267736904524, -0.18269113783045177, -0.04031883068495334, 0.09494055237932188, -0.016325494883317873, -0.008645528271104713, -0.0430461911885793, 0.1149379383367124, 0.02975143539549459, 0.0044022276175347975, 0.06430545453392927, 0.05882249291179367, 0.02125870464375366, 0.15470314969908447, -0.0060287533639119045, 0.027808104796794398, -0.06429525533528906, 0.015011522700612921, 0.15877615237453677, -0.06432576017887388, -0.11335928256384589, 0.09967596428198156, -0.014876615223367926, 0.009600420496977001, -0.004511330369333481, 0.007912172392953509, 0.08505306835234383, -0.08391241905992737, -0.10117740841054886, 0.008496813703770768, -0.16064396894498328, -0.13730535360419285, 0.1866683148331627, 0.0757468330061404, -0.0010056471869014539, 0.12380069359584399, -0.10405992300851451, -0.031560312338585826, 0.06234536094243825, 0.08906716814313947, 0.051291684682777644, -0.2541238807688225, -0.0968082117664578, 0.04770680923568653, -0.035595149304680634, 0.2540231620759172, 0.09265583009670965, 0.05580818806186658, -0.11169495537467236, -0.003529673960291556, 0.024120396421895254, 0.11277836301278024, 0.08811310970996324, 0.10329891945199457, -0.09239120158100021, 0.1412151698298631, -0.13804307523072692, -0.05359145616661618, 0.04307711349456415, -0.014989159173313933, -0.10060368579203915, -0.08215498256031327, -0.15482543228490425, 0.05319746390071914, 0.12605688450421493, -0.010039350340136602, -0.040034881501342344, -0.14723229284664896, 0.09132019242521777, 0.22113043332394933, -0.17974558043668976, -0.10634329381546069, -0.06795930425441442, -0.0564317909682489, 0.022734595014348102, 0.16142495472802276, 0.10085972868601037, 0.05275973827743159, -0.07239287040586022, -0.11196282336804544, -0.0796775306306301, 0.15480668013787388, -0.006174330145790108, -0.04468362536626212, -0.018375573024999228, 0.08246182196384677, -0.13128496745497917, 0.14148741359224223, 0.015647625694629897, -0.02163439782957261, 0.044284611374673905, 0.021839707312993704, -0.03441964564673813, -0.02527106720416067, -0.08688625468659522, 0.06563907508593024, -0.05319938094111618, -0.09562584224322829, 0.016586352265353734, 0.13291412827455534, -0.004834462377981962, -0.060810125695169, 0.04038960208359738, 0.19367124624025522, -0.14519055294317473, 0.03822027877852936, 0.02050866252318538, 0.11615338035591172, 0.09909091736848452, -0.018670911180977922, -0.1684517255424883, 0.08065637678962596, -0.08351926901914832, -0.09467404109571896, 0.11483505806911264, -0.09108503776386526, 0.14028447401002433, 0.033584472140531306, 0.03191184000862824, 0.030726478050559104, -0.16384236257417922, -0.17763886163465759], [0.021555305378868482, 0.05680073592264201, 0.008261103215620102, -0.08215345170195276, 0.0018922103882194738, -0.008203415314548415, -0.09571580982754103, 0.10139721541121614, -0.1730276061550086, 0.058874240680750645, 0.038432340521124535, 0.10097118548117144, -0.10053118723488588, 0.0101407146668211, 0.21711649493181662, 0.06620742889997064, 0.01005812087289632, 0.053916127411419656, 0.008617684238012003, 0.21908980132398403, 0.09836361957891795, -0.008561495423049709, 0.025233143138452124, -0.03907979960810136, 0.12098501264103051, -0.1406104771391011, -0.16047385298609873, 0.14587147496759936, 0.21531197925705828, 0.046830490768959177, 0.011273794123573726, 0.06572676903047774, -0.06470535263827593, 0.01712435451522125, 0.0038908705856215034, 0.06265642507453606, -0.15579985281833963, -0.05070347697653375, 0.08449956030008372, -0.06755938276300631, -0.09933613754231355, 0.20420721498269542, 0.0038118000179400363, -0.057891813994320786, -0.16923704374741086, 0.07293463462804262, 0.06991361537186938, -0.029875960056993597, -0.11022301909070907, -0.0024549423642379036, -0.08358560674816214, -0.09420935888731159, -0.010321275146170759, -0.10513903986600646, 0.024664895525244618, 0.06079925094063973, -0.08396324471731914, -0.13682450953383907, 0.1561279598955807, -0.09402702359572049, -0.06599427051023377, 0.02130171674298874, 0.059936937252229705, -0.02563168936896428, 0.04607943277012556, -0.04009861578964011, -0.09711706648243908, 0.14263168607870275, 0.24884416143311283, 0.16959695330141694, 0.014180663915345447, 0.18334353618156785, 0.03557035157239845, -0.047728627040322935, 0.04663795743819789, -0.009439250641118497, -0.09831181837457077, -0.0898321971432016, 0.0802051738740516, -0.1846531981664673, 0.06041367404426842, -0.16295836027484384, -0.21211764449024362, -0.18388466037584986, 0.196676397193474, -0.0196233964943542, 0.00865831801654191, 0.14192550459109513, 0.0934179748499725, -0.13915052694042196, 0.08690063428187611, 0.01841812647035463, -0.03416780975958806, 0.002429091413778039, 0.1279812020628022, -0.0885966482040953, 0.04008856791041212, -0.0009657236532908346, -0.17971646153956186, -0.08022531717308108, 0.01932135532336965, 0.12973420890928908, 0.10013310173467296, 0.0597212504403425, -0.08152756611364587, 0.1801213990808535, 0.02152404676396115, -0.10063655216785504, -0.018290498085695103, 0.08962484253561594, 0.0007617498318158107, 0.0886864686582761, 0.11036939574621503, 0.04005306845987062, -0.08577026230468941, 0.013545466318998054, 0.004516585593883101, 0.18593463338516283, -0.162632193782683, -0.013482245109435407, -0.05840935467949193, 0.03351056201959989, -0.24375643591993562, 0.111492455949028, 0.0013748487335533657, -0.18447011636280464, -0.03611131347398661, 0.06089623416545242], [-0.15914478754580316, 0.00032222164431556995, -0.10574736478015301, -0.05559850318789673, 0.002673838267463693, 0.01834502535815763, -0.047074249818272726, 0.027279638953026417, 0.08179776072548058, -0.02789142751032398, 0.1431567757449291, 0.14622141707804195, -0.04287020655858289, -0.06378405564735844, -0.16641729851661735, -0.012656933163938986, -0.03634377801160514, 0.07790512201329916, -0.15096616060682988, -0.027739139174310985, 0.09687443931111454, -0.073035709555796, -0.07623615367276093, -0.14469403347558085, 0.26205738460182393, -0.07474731780653794, -0.13003468322183392, -0.080385040403152, -0.07742950804868046, -0.02693897784512403, 0.08253722320875148, -0.029832316899583374, -0.09228233149968279, -0.14513384981910252, 0.002185735821987137, 0.004253907402979072, 0.15309323510288247, 0.00924477354698086, -0.009900831128407738, -0.10506538365874896, -0.030595257509839192, -0.04384744580346061, -0.03701641645137026, -0.09592553926405883, 0.05383296032761769, -0.014244541750936937, -0.02003534800049874, -0.17140461160489964, 0.04936440875248639, 0.048701532598037944, -0.08391294028422137, 0.09901213838791938, -0.13647582300824324, -0.0021869908789079874, -0.02712073398901639, -0.13171747888057944, 0.018970261207999578, 0.17025701522417913, 0.006763423006691977, -0.046302175410905096, 0.04470241568856783, 0.010571999546715494, 0.0027762131625501487, -0.04255422127714481, 0.1421975559292465, 0.04563633634807854, -0.052867065893548865, -0.010800383678095793, -0.07408667042040727, -0.060829115008149505, -0.06407257241901991, -0.11343115937222276, 0.07772769637679555, -0.02910414632730258, 0.055412757832676976, -0.06701258977272966, -0.006036249439233865, -0.07110405967911113, 0.07196681705373317, -0.024841930670503824, -0.07308735859513858, -0.16417032288097844, 0.02756665493407744, -0.07083850523381072, -0.0015779217120995175, -0.049173010801352765, 0.0954189580898765, 0.0544144752358008, 0.04472120874548315, -0.061612112332347924, 0.04662900435501895, 0.1714831608676043, -0.0832186034150062, 0.01723391392291888, -0.16492169744171323, 0.13985620921255357, -0.039791209859084145, 0.07825788808419776, -0.17232282507163232, 0.1797539387125905, -0.035687152802559845, 0.05456573234700275, 0.01508182063325938, -0.025547078618776944, 0.16857923026593036, -0.164804620636618, 0.029871365999200896, 0.09106456722299704, -0.0029856121636366267, -0.011817078436659181, -0.014268771207346504, -0.1227636420410408, 0.003812738409493465, 0.05127175234723988, 0.006859922748066053, -0.027227610114508062, -0.04897250223730268, -0.027929666927837216, 0.12577442174960382, -0.20866349794205427, 0.004007145654777546, -0.03277549172964168, 0.14558079518368436, 0.005549222544380277, 0.1484925598699954, -0.21238900180455592, 0.04595849048340562, 0.028005786003768015], [0.1390533967073938, -0.16413486088230292, -0.01550358081183258, 0.0066060261786492595, -0.049579549454520935, 0.12165777137429404, -0.03386821854453976, 0.20347625440211536, 0.10541779089389228, 0.09508336970037996, 0.055929898139088434, -0.1063695591025548, -0.04310963375107571, 0.05727513668572159, 0.06775570335877172, 0.13071838450812576, -0.046744100962590636, -0.08601533849246633, 0.08591041927855307, -0.08096265760401128, 0.08733118360704123, 0.11997361764150379, 0.04561530358270554, -0.03575790319685979, 0.004108222614387957, 0.059346591960323915, 0.0010185518712073464, 0.21982963386704926, -0.09906709306271493, -0.1002668587369791, -0.09768953867353253, -0.058957992254521564, -0.21789315201949094, -0.06296504269401813, -0.06532847019278891, 0.007851402517417628, 0.041780058320608146, -0.12402163364077703, 0.09000542427640723, 0.18022422297905472, -0.020828510309499636, 0.15743712374755717, 0.019898949440518773, 0.1988731918595391, 0.11172834656881903, -0.15639046348397664, 0.0018627370661355458, 0.10543249749040778, 0.003054658104061689, -0.0036883530845066947, 0.1269764750314304, -0.0709854182146104, 0.0017515613278218337, 0.03236257646091187, -0.033379096035356416, -0.0020129103877537476, 0.07750232632241703, 0.0432837621499994, -0.08087175319795337, -0.11041239857992619, -0.07891021802566503, 0.00012484557884866055, -0.01599397877570428, -0.08319574932171248, -0.05981504525164858, -0.15200392851920638, 0.0417853703217326, -0.004001872535163292, -0.12597873434052703, 0.002862050418778282, 0.13426220105103534, -0.07399358529652597, 0.13151376657209723, -0.03234574724834238, 0.019782816784986782, 0.009775080242218528, 0.14015234160052456, 0.01584338467855317, -0.11419014192038467, -0.13109703704412123, -0.1532921053430128, -0.17119701640942214, 0.004613505895568493, -0.09583744802265615, -0.008081161294374096, -0.07038590359904466, -0.07707843007065653, -0.048084534087272916, 0.07035855546433883, 0.09291451477686911, 0.03711725526490392, -0.09898225495471193, 0.06436312754533384, 0.06888966666079323, 0.027464720361244456, -0.06036204360190907, 0.07088595753671403, 0.04228185746766615, -0.31168565915991264, 0.06444520334110423, -0.1913742670861507, 0.06635615765913815, -0.01540723984248353, 0.11936116807491981, -0.009816121120593053, -0.08866142600561125, -0.014735366458284367, 0.10598062949337746, 0.0026246617861587387, -0.011433515987237679, 0.0743553515508337, 0.021035936662981293, -0.0005927405833231806, 0.13660600684033317, 0.15551140320590678, 0.06133262263287012, -0.028595915148517295, 0.14969109935208272, 0.11831195573317072, 0.07188971655282916, -0.1216076580745861, 0.014067190330796092, -0.07436721747008732, -0.015901225155435933, 0.024005692929671873, 0.01001594080906235, -0.04751751058292485, 0.12729537489199108], [-0.1696131266831543, 0.07301835311296144, -0.1857483271594538, 0.03825981367234629, -0.08869043262838756, 0.08783037577325305, 0.008645252400759347, 0.02477063784668243, -0.10182793255668515, -0.0654570134997584, 0.020721739341095335, 0.0583569926909304, 0.29290962417638616, 0.022285832310348672, 0.09760375253689257, -0.15569339325092607, -0.1329891861334063, -0.035549477460845205, -0.11974276956385664, 0.14863992534663847, -0.04102186927803288, 0.13821818883931386, 0.14867824740856309, 0.004277971988356689, 0.0501799753807639, -0.005609947334090291, 0.05384370003545387, 0.04833418517805718, -0.012364962589203072, 0.050496998146284035, 0.1723696275667262, 0.07130162297109377, 0.032579961364062555, 0.012476952104321242, -0.10126731237685911, -0.10272968770754626, 0.03233565314802586, -0.13693911240471573, -0.07663275989635832, 0.12815113403641332, 0.19142296970628142, -0.16659560767977186, 0.1626649562301582, -0.021143829084555664, -0.0015005087031364807, -0.011341163064273397, 0.10805441270254873, -0.1607676579043177, 0.045616361135513345, -0.0944870197388011, 0.05707885293815738, 0.1542796338293052, -4.173264126201668e-05, 0.03741550859708025, 0.04095517782376914, -0.07995934996704901, 0.15116393498843184, 0.1706468247260989, 0.0701783372117029, 0.007328543200764547, -0.04618938153542847, -0.06264902231490875, 0.17108365825466557, 0.14144150427290236, -0.006366148878954943, -0.15799305296711239, -0.28320118699089875, -0.10834266602642798, -0.013062039599511941, 0.14006890344430015, -0.06516562090577808, 0.050481545634050176, 0.13031809616484324, 0.012853631685604817, -0.014244786878884134, -0.1308763514238608, -0.12024753082044329, 0.04160996344158233, -0.020090753320092674, 0.012253131765330154, -0.004727771569624714, 0.06641440493586505, -0.07846874114294453, -0.033558064358316694, 0.18961822286331442, -0.07997861383857707, -0.028157543080010214, -0.05893867019785694, 0.044478136240725025, 0.10223923224420695, -0.04982116185861096, -0.04314143411046853, -0.02789816053030303, 0.05298337834749577, -0.07393953025101954, -0.03759599659712592, -0.23721938715130153, -0.13817450094949854, -0.011244375601928822, 0.08978641732031215, 0.029507578330186243, -0.10987684566672995, -0.1400256208127942, 0.017468009289816875, -0.16528036422528436, 0.1065926818716889, 0.006389619165017827, -0.1607320159234058, -0.09659538588418698, -0.07243113192311228, -0.07731925102234388, -0.14899330082214923, -0.08746625219888453, -0.06844015561404262, -0.07112857556104384, 0.11279566249333806, 0.010482780282721458, -0.09932572174375524, -0.0334621605954122, -0.08795570973113842, -0.0300006659011757, 0.08755091531413833, 0.02522707806121254, 0.22856011815280666, 0.03759274257674802, -0.0913594509977107, 0.08097407308144475, 0.10799312171425357], [0.10941669914439439, -0.10942409530350915, -0.01476374145148375, 0.11318119568284526, -0.16847289588739411, -0.04994167610220383, -0.14269376854269916, -0.09325702298970133, -0.10124571527438063, 0.1250569832543435, -0.02345380349087504, -0.08633555813417826, -0.10356057313844946, 0.01416671648715303, -0.0011135627340667109, 0.1344074374673427, 0.05000166958573026, -0.14317977780650376, -0.06289807075912683, 0.10700725120709771, -0.06210826977013774, 0.17345721749237092, -0.10982894313247467, 0.05726133530407902, -0.08612155533986415, -0.050959513294635744, 0.10985816482311467, -0.012706716283851694, 0.08134522451141071, 0.04732905949147995, 0.07538656835623009, -0.08881882110855133, -0.02215743982040007, 0.042425261810087024, -0.08490728726936604, 0.16295000432323287, -0.07772280421551345, -0.030000357693779525, -0.10065590647942375, -0.21433080652386885, 0.17969185225749282, -0.020433893690304725, -0.04479148384155403, -0.019871506167079868, 0.14198639721964357, -0.09651066080644173, 0.06795678657650825, -0.042378824854947636, -0.05966708555383098, 0.05670582125201824, 0.09882405737426969, -0.051390295027991556, -0.076884915967481, -0.11690957473220272, 0.11035037667283756, -0.057525599480611804, -0.18491307272754512, 0.14099521383961464, -0.13698595019529422, 0.07794605312590615, 0.018342864666752473, 0.02879154322152784, -0.0584375275311322, 0.03655914602246361, -0.16677798928842374, 0.058803774873981286, 0.15570100415321603, 0.08840271974263263, -0.20195400853867215, -0.09842090022728484, -0.018779492197480693, 0.04869373049399327, -0.01066526736602251, -0.049321438711049784, 0.05953003076922928, 0.11641517662249663, -0.023229400718659737, 0.07289298673852394, -0.25790507451894745, -0.09375093861087293, -0.032125893705800955, -0.048856622075462576, 0.03327982174044548, 0.10137505474982607, 0.05066690260283885, -0.062222547175505585, -0.15227680905041863, 0.0556964120578887, -0.18381767396700122, 0.06530372834064285, -0.018844908213006828, -0.11758349879382289, 0.02872573124667928, -0.0002876102659000991, -0.00365972929162469, -0.008422329652739403, 0.041952410842614155, 0.09244340219585095, 0.049661519848385155, 0.10121331898223096, -0.004413971884780625, 0.16184593242319745, 0.05711098221298227, -0.054369402968277684, -0.10938950567344051, 0.020579680373408, -0.1306521522922601, -0.09733759675567485, 0.023908708037359925, -0.06078874462819542, -0.09333162402269224, -0.003447504608839826, 0.0072677899103789885, -0.020583402521873764, -0.03775469190592886, 0.08546427287124486, 0.03424273512868276, -0.022342611219469604, 0.24643219335153654, 0.01938317369284131, 0.11320051336773299, -0.05609810031317565, -0.13629409472080098, -0.07917565156434644, -0.026800978339811196, -0.04966082097295171, 0.13363861823227938, -0.012004112209610803], [0.04614688774411399, -0.004648115603289032, -0.04335543327331676, 0.0037996013453515, 0.1714051469770732, -0.0767948591736815, 0.07669904505595512, -0.10260072516257819, -0.0459626442269439, 0.0003583205954583647, 0.03263750897269907, 0.1483128627973814, -0.005008264146453542, -0.08436156065359265, 0.06500419730507698, -0.0364169808915756, 0.023868157093183538, -0.011622243953775186, -0.19434568512868228, 0.050829918559397315, 0.058336800682129875, 0.09266047683086054, 0.18004627624602276, -0.11951037734634758, 0.051650744428175945, 0.04092949966409554, -0.04190819928078221, 0.03971062364497788, 0.0499646955111966, -0.1218683829977197, 0.02462227612764322, -0.09179843060046156, -0.06518564999305905, -0.17747448151886502, -0.04733609255024788, -0.020357067147347696, 0.054985686729639084, 8.999266711071547e-05, -0.15422881507996788, 0.08621480568842674, -0.011858662355009231, 0.048837059042965744, 0.09659361184597012, 0.1422604748969035, 0.19612269893650155, -0.007223875867166796, 0.031112444609365353, -0.10783610908167798, 0.10616001700352612, -0.11848874445717697, -0.18052516886304212, 0.08303860053403918, -0.05216965249478154, 0.07776072813422405, 0.04080746493461687, -0.16300026510237087, -0.27196793643226147, -0.10966017470927192, 0.001649148698086454, -0.12217763346947719, -0.0652761449348713, -0.14589407305973254, 0.016987795979692445, 0.00908259270363252, -0.04813926240476333, 0.13970653013137427, 0.14977150273195636, 0.05652672025364511, -0.17997711814667447, -0.11046901472056095, 0.04071303310832482, -0.06285575802445897, -0.048709143171182356, 0.089896739458806, 0.05108748218924175, 0.13141544338139488, -0.042920929664647736, 0.13752254204468972, -0.05541312470844857, 0.14994914901387632, 0.010583464361677869, -0.0860509747109608, -0.1631219507653533, -0.03014723148616932, -0.025623269799543893, 0.08576619101224521, -0.011059050280820729, -0.04324319785784447, 0.10770374729475365, -0.02248265612701515, -0.05762418162269032, 0.05746089172925728, -0.04898282188472669, 0.0658802141691513, -0.059691711178319444, -0.022295918297037944, 0.015217697558826635, -0.03741263202643059, -0.001345146935738968, 0.08154719692400601, 0.04106017913200477, 0.04809698500346235, -0.06354304386192672, 0.0852829768274368, 0.06695623405090827, 0.10044191922616248, -0.07263658321861022, -0.017245859668145704, 0.06335339024604004, -0.060881511741713135, -0.022612246976395623, 0.19258057374595272, 0.1951761012267814, 0.12399405498273602, 0.09385851362497682, -0.10192511495051296, 0.05125622314261224, -0.03591165950658853, -0.10585718976053678, -0.050900583859132, 0.011566507404634658, -0.054735557429866646, -0.05507994257068402, 0.07920414984229743, 0.014410648512323182, 0.023345807966231803, 0.011187239689629836, -0.0675703143371651], [-0.13705719179606884, 0.031056471042047847, -0.05070366321254438, -0.20107822685858778, -0.03925672579651525, -0.10922179413406236, 0.06986502343077554, 0.052162522724034, 0.04968931448384696, -0.0665041618158691, 0.0731551581862154, 0.0319649783134073, -0.04098545384398195, -0.045333743213851696, 0.08927081528737002, -0.047360405696365813, 0.03036564735262783, 0.10339569868127836, 0.1909342625557109, 0.16638731244377297, 0.090082276420903, -0.15059113515713873, -0.06890484294179713, -0.054808718747253564, 0.1653149832565321, -0.0699317940972091, 0.03861663770983692, 0.010086706325731179, -0.0935127209437544, 0.03818240096193839, 0.039829608619749254, -0.12557748817415015, 0.12228774470534098, -0.20865100288551877, -0.0590757152909962, 0.09719702938655755, -0.11932578334740392, 0.035026591956203, -0.12963603882754302, -0.009302414444422329, -0.23137731131722006, -0.08425717017130081, -0.15429214471542904, -0.040176374212650065, -0.04152313958216571, -0.06736641713091397, 0.07979131965667456, -0.08868796038714377, 0.06343866731890511, 0.16292757699588617, 0.013906415030468256, -0.08576702045753998, -0.12493385148615424, -0.07097851001194992, 0.0704642720749891, 0.015559073496889751, 0.09367952162539889, 0.0770330879327212, 0.014081065187823592, 0.04734882616664622, 0.1855246209420479, 0.14156562261746802, -0.030274601690425326, 0.09896794419358904, 0.05858508058179356, 0.11363880775397395, 0.06716165720359098, -0.09741674350429902, -0.16196845653727007, 0.05726270172050857, 0.19026181983698312, -0.07756641079399706, -0.01880897380496502, -0.10357477261952129, 0.117782950470566, -0.2305166855043521, -0.22636603010358086, 0.03750199198201533, -0.008234364679135213, -0.04796230150738065, -0.03010947865234137, 0.05369879144563616, -0.04138039890496651, -0.10969249717331137, -0.09273629280729663, 0.08883388619968427, -0.05247419549622204, -0.13852775837671982, 0.010217832694397074, 0.05049947217800112, 0.13289607475532236, 0.0217903387121669, -0.06597112472096701, 0.047400786727702975, 0.07271748700204365, -0.003890530666380676, -0.0044599392725573435, 0.026013290493876767, -0.006985649825618424, 0.025011390688312558, -0.10219133244269284, -0.11504377698185096, -0.08361113795007691, 0.06422109433294258, 0.02587975673406087, 0.10402389642495587, -0.018669092211460996, -0.11436413958418497, 0.1144553535284558, -0.0018767055539892924, 0.12834550362665254, 0.05979464913921806, 0.2188618678822837, -0.021977298571336235, 0.09007239050891808, 0.08913641063529441, -0.055512634549444995, -0.01724823171069609, -0.1461738342216723, -0.1548796137002666, 0.012656880153077497, 0.07930070706974274, 0.0638024033495455, 0.03400245982596527, 0.08630171531510915, -0.05896977956993248, -0.02725327484877595, 0.07375215134138817], [0.04331187294489333, -0.021018881379676235, 0.13207943861279145, -0.12920012510471277, -0.05186786872885925, -0.02833977744562524, 0.08165348797737704, 0.00023851979152351624, -0.1261491746790615, 0.051400417981606356, 0.10875463154668946, 0.07393045331330263, 0.061915492160548896, -0.18743134967410682, -0.08998864767434844, 0.04820806086722011, -0.005488818475438849, 0.0522557601998812, -0.12663426769629543, -0.0061494764284886145, -0.13897810188962068, -0.19536785626194064, 0.029577908850688724, 0.08425887964569805, 0.02456164279017758, -0.00329964802646661, -0.15620143418292665, 0.10061070670975472, -0.004404489737594127, 0.1959562005205768, 0.09423143082769668, -0.20051254266521484, 0.0755049680255888, -0.13965352375731574, -0.0759495490429064, -0.025075667676014952, -0.009406245036260367, 0.03975652156174662, -0.10228550408042142, -0.1150692004256647, 0.06006052017330761, -0.001325026793402666, 0.017437304870152562, -0.21936833516946602, -0.017713738331532357, -0.08907291830614959, -0.09206263730168694, 0.09219348042245776, -0.10956712289725123, -0.10928966063260302, -0.03310106034017459, 0.045028883064734425, -0.08840147297480862, 0.12341440357800615, 0.1449847525361219, -0.08814470664684639, -0.024508175557685558, -0.0778675472657613, -0.16853821048712272, 0.030301105045615742, 0.07335948682293696, 0.20118642631265615, -0.0897409503631337, 0.1336235090812621, 0.13423536912579534, 0.019785330956715308, 0.060216348957606386, 0.08732730483007037, 0.19740999482418997, 0.047780856261646944, -0.0060137885503685215, -0.08661687990074723, 0.030532075501249808, 0.10241649327730701, 0.024461036132947197, -0.0779923248925003, 0.008907620249656334, -0.012915348246011388, 0.026473875775570727, -0.16618483672182502, 0.05507886141027314, 0.059542315676372304, 0.04448534381865086, -0.00037628171450240257, -0.18059362626034217, -0.001932279197126341, 0.10607149993421697, -0.08601288762924614, -0.1989269466161284, -0.15405579718706938, 0.031402569182060316, 0.03728760088524376, 0.0886293194621468, -0.005525899572965249, -0.15003283759785707, -0.08185041405936758, 0.08188393725993479, 0.014049590743947592, 0.06498296346799787, 0.04347888054610397, -0.020496055173029593, -0.01740068375080337, 0.18571022697558598, 0.041467426660922097, -0.012858755031636061, 0.04554199909368095, 0.022290581962427336, -0.21573563734944612, 0.06500845143723144, 0.18209392740896757, -0.07802798683900641, 0.14540357488391673, -0.025686969733191695, 0.029347139764982228, 0.1070360016973174, -0.07200014312908092, 0.12424939128184714, -0.12142172813593394, -0.08751547489139165, -0.05935203173475259, 0.06620053664519022, -0.034087441056947075, -0.1519974459585868, -0.021653287184982842, -0.0784221382534384, 0.07312936208403685, -0.03432350544551033, 0.0070774075900651365], [-0.040547245714067134, 0.043393896823028896, -0.01835907634705542, 0.03251987146870653, -0.25933885647417104, 0.009725087697778615, 0.04139136701102331, -0.019928005491459205, 0.06693924713925414, 0.07386070289928208, 0.1304213891849503, 0.010481160807228166, -0.19138007046699812, -0.22854994487896452, -0.16018409520745178, -0.00379070611841362, -0.01573052882805657, 0.027623985201997377, -0.06252459225571738, -0.07364911715057483, 0.05550479424104341, 0.0655924411372502, -0.025665013548048083, -0.00384766582389533, 0.04043143433289911, 0.05043435751629946, -0.11439806995987403, -0.07195738559179508, -0.12305460456453868, -0.050690661483683064, 0.08123335893418311, 0.05462718669437655, -0.10980979603625587, 0.05122667268259819, 0.0085843105342452, -0.049392670708592074, -0.14064596551036312, -0.017482337161776697, 0.06799440061159555, -0.2163097648396126, -0.039612319775144955, 0.22542836988049625, 0.06726367185680938, 0.0259832495003476, -0.0737185169570914, -0.06783298378739698, -0.008328839569996338, 0.1602863629377136, 0.046558919089493056, -0.08721583977708226, 0.1176786962383864, -0.029259420715809073, 0.16973464810139494, -0.05666030246377041, -0.1003265756903889, 0.017462957781357, 0.0982326983800298, 0.10374447967309103, 0.01591917666688115, -0.09880966879686112, -0.0505340721897885, -0.20182818683542167, -0.09131215375688202, -0.017845681489726314, 0.03890021406534792, -0.03394543214647791, -0.0056979054977739675, -0.0396185444749817, 0.07510253041897702, -0.0899112938426539, 0.08375479141463266, 0.19608808125139107, 0.047278965602193114, -0.05270916102240419, -0.05362701440867851, 0.12098372221840976, -0.11265894258719976, -0.0953804420272564, -0.11644484538704646, -0.1278513840520686, -0.10448163193798571, 0.07899049417854931, 0.11022825645880244, -0.06970730723601831, 0.02073340460456899, 0.07591566751082342, 0.010056420309716298, -0.0954942757617239, -0.14704017351380813, 0.10104275531255087, 0.04961794122883805, 0.057695589339865384, -0.11076469009010302, 0.02349771928890519, 0.06289995874568216, 0.03140338436471456, -0.07450232168076891, 0.10122605100653358, -0.1527631948178774, 0.09287419248069416, 0.10810559440870733, 0.1572330317535225, -0.03424921902504429, -0.09994300165615205, 0.07938803623083801, -0.06992152790869743, 0.004399551144398879, -0.031746221716007196, -0.09020719714130848, 0.03209994661848916, -0.13920159165580356, 0.05922056816440394, -0.09669310884567346, -0.17317313464679263, -0.005010745879029284, 0.043163385281122325, 0.05769345970532244, 0.08183537308271614, -0.23536403996904137, -0.10051444309566715, 0.010665229450303213, 0.15190032799361455, 0.07837444936747279, 0.19013400518481127, -0.0524939422913999, 0.027441699528200865, -0.10999708075693071, -0.04043522196239998], [-0.07352957182829736, -0.06339886593167214, -0.03934491211856633, 0.0002717539890680891, 0.0022212664516484087, 0.05434534395827254, 0.013998846738685936, -0.03440456288496254, -0.052257854153194665, -0.030713172015868408, -0.04490371414469656, 0.049097105518197966, 0.08655251906712624, 0.12740445379470847, -0.07977027599404174, 0.04693722253387501, -0.13946796415926757, 0.03731747182525782, 0.10826722820910646, -0.014958950166699498, 0.10726360472588732, -0.11385678703154767, -0.08886452830916368, -0.013580984264368655, 0.10222103545858244, -0.04174294563419882, -0.04535531009087746, -0.09916283583780207, 0.02028810444426216, 0.12466951408944356, 0.07006801090936925, 0.06966506543362648, -0.020697447492366405, -0.05633093592639145, 0.06772459164163702, -0.003191107563414087, -0.017360823571938175, 0.08982406224036156, -0.01977874516727299, -0.08377762593852058, 0.09091884953309662, 0.00807198904338667, -0.1037029343848692, -0.11129058948716163, 0.009541187582686683, 0.23374096614782758, -0.03928206035462085, -0.03362738590855785, 0.15237711976170534, -0.005728119979051539, -0.14484668632479883, -0.15727964525481733, 0.12266639737874803, 0.06663545422501889, 0.08261257084311929, -0.005775655837871275, -0.07267120259827976, -0.0217163115724167, 0.013603121737437676, -0.08383111556987011, 0.056144990955112675, -0.12595961687997215, -0.03327587645752238, -0.020400787247650293, -0.06910198131753685, -0.22055053550198223, 0.044786966411125256, -0.07557507604402672, 0.13257079593243715, -0.034198227768405226, -0.054135958843122056, 0.009152194677887708, 0.10534397486304481, -0.056340766311816975, 0.10147376948297769, 0.14403036410176226, 0.09903228106559456, 0.16264314909922573, 0.12926460210124688, 0.1514882293893006, 0.16043263194156412, 0.02080695296299638, -0.042922389957219836, -0.22622436352438058, -0.1322733119521796, -0.044828279915879565, -0.0381735087240566, -0.015279446340208662, -0.10007604902487502, -0.1595777611441314, -0.013022316646672622, -0.01894179288117906, -0.08075540415498661, -0.07421521616503846, -0.09401565918724068, -0.03965237390163178, -0.08563028269952513, 0.12598753315170155, 0.024099673204512107, -0.09723179180265173, -0.028044778146745414, -0.11802856063511907, 0.10121682951747879, 0.138418672458082, 0.12520019827530313, -0.11446926312425976, -0.009126701972617592, -0.04015706755129159, 0.05620131059141817, -0.1007909803283898, -0.06758916940010166, -0.04132170283518081, 0.01532884691324239, 0.06941287081378865, -0.03287276927366078, 0.06639650755262219, 0.08220763567971379, -0.021321523687182105, -0.12456581328655969, -0.11711903354341405, 0.05917269751515683, -0.04762244363146695, -0.17126293226824552, 0.06129523681830006, 0.012955452054621897, -0.14059670811426284, 0.11794199812026458, 0.08366359871577495], [0.013874525129017932, -0.1274319367734417, -0.1402330532885283, -0.030706848684143653, -0.17139153895502895, 0.04050802731844855, -0.14108233133803366, 0.01649127292546986, -0.028813145272672643, 0.07117852680970442, -0.09379475952614882, 0.027372944952472403, -0.13948401928346435, 0.07955495517694071, -0.011496176627749469, 0.049585066896543045, -0.13205253468280323, 0.04990842756717666, 0.030620339630370853, 0.036369789271336314, 0.0312633963013986, -0.019346388279034774, 0.1241299220315991, -0.015589798576570358, -0.07391692003908287, -0.005872619336893859, -0.09505179454445303, -0.046399642333084405, -0.017724661618939888, -0.037955412064586, 0.019939707280548575, 0.19457613913063268, 0.05709498398461205, 0.10723006472880914, -0.05037094373682366, -0.05870162885051486, -0.037817804689298976, 0.08528890972688774, -0.2148118478230898, -0.10331647752913674, 0.01023358468342199, -0.02240923670629287, 0.1967729682143046, 0.044768321574265635, -0.06621914435304808, -0.15776070685393473, -0.03405600349378623, -0.13032200826784146, 0.046675065041843516, 0.016110632224167847, 0.03200319320927313, 0.20791766647950372, -0.09074659814202977, -0.019240420779590678, -0.1212515744488909, -0.008059851615012546, 0.1593273615950027, 0.056872239912047186, -0.011448704558920083, 0.025163024881989057, -0.121085563794359, -0.03937337116943893, 0.008525257457038693, 0.009942198670854184, -0.1530616244398617, 0.03276231792347814, 0.027919649251421028, -0.03770512062727785, 0.00041749990825003074, -0.14834915533680013, -0.14797956153243483, 0.013468726233823761, -0.0667723190916164, -0.0011555520224301363, 0.08394906723176047, -0.017392993030515582, -0.2810668054829197, -0.015065363802089336, -0.048104402199403526, -0.023469435432292008, 0.08997308125715531, -0.1578530185941114, 0.024395662390798448, 0.15703039119112322, -0.06259431149684574, 0.047232788618573725, 0.09663057789708022, 0.02102314391020942, -0.06850969803314269, -0.07095210107080004, 0.07438001537659823, 0.059214909078173394, -0.07864684150712256, -0.11764731543610829, -0.12808067141489962, 0.16616518611847708, -0.006794512039049865, 0.23602285856534144, 0.055554560307054295, 0.043952232283379855, 0.03062724883051837, 0.09991498501973654, -0.09660631850440696, 0.21600131083707352, -0.01003017026118319, -0.07034000921928112, 0.03025610022884201, 0.1092338876030798, -0.10075548757829758, 0.05668693724410713, -0.07164441575864774, -0.050627353317448866, -0.048948241875503076, 0.07635414664859205, -0.11090727317943777, 0.01926161100346126, -0.03434178640825921, -0.08472101779585292, -0.12135236027544805, -0.12028883245160027, -0.16337960176527974, 0.0896167193749268, -0.02416531626312207, 0.015865193006624295, 0.11781893644815976, -0.12201171569315528, -0.09415456753157148, 0.02547155366937834], [-0.18240795520803668, -0.05787085129968689, -0.09248930731004674, 0.03295224421695356, -0.04258158663638689, 0.20081492793769584, 0.09378913720693943, -0.08532384842753112, -0.03873134374568503, -0.034758451291544416, 0.3306574349110562, -0.15101996439781412, 0.020353970040461286, -0.20844321353615292, -0.0006937441205922597, 0.19098905619090115, -0.04084554316741083, 0.11045544214720489, -0.006611522595320368, -0.04224987168254349, -0.0251656358946396, -0.05869026451800015, -0.06260582718898235, -0.13301944123244955, 0.15068007289494437, -0.039307639579344356, 0.029377431076575308, -0.0876531851439786, 0.11169905594153501, -0.027355577790782966, -0.009103266785780535, -0.18289766352959455, 0.03959762111396119, 0.18115057048202463, -0.08690775859999118, -0.04582291537024826, -0.11383239582150162, 0.012916217424037618, 0.006402419790682801, 0.0705081101494469, 0.055147354680091965, -0.08125160461856012, 0.02249480490643737, -0.03283011067224728, -0.10910329773767136, -0.012685587296261337, 0.3801660214967115, 0.2315170634005945, 0.013982659776765142, 0.17388572080107567, -0.004538336414627235, -0.005313833944148108, -0.19495717876297633, -0.09601055659442864, -0.07834992639864762, 0.010751903166543004, 0.0013984534859276174, -0.05789423513918671, -0.05888131995338436, -0.016615313560795222, -0.13814116506822827, -0.06126385603685591, -0.038128986980829505, -0.12489489330728745, -0.03302378932645443, -0.08348071635345083, 0.1235382392009477, -0.024380379713912194, -0.018954566825657566, 0.04280281070213674, 0.05569683168406292, -0.17362418043001512, -0.037678410910753496, -0.09090323262520912, -0.01451702441932181, -0.05363325211989141, 0.015706946285780825, -0.09804592455621558, -0.056776724152018704, -0.059115966892235305, 0.10825913704708934, 0.036800365928054295, 0.03688887075856658, -0.02863182808100257, -0.0384717852093554, 0.05610028884976374, 0.0777433933793785, 0.0015146785628840824, 0.11416479454761015, 0.12741550275151842, -0.16646980393889146, 0.043037888478304996, -0.004260192849103662, 0.03882888139682427, 0.11159765280267425, -0.09205381630914403, -0.1620274102422562, 0.11061914728510454, -0.09984846449304126, -0.06862195139210356, 0.020462089341965032, -0.06861018211613559, -0.1592210628315598, 0.003418976741572549, -0.07814846589618593, 0.059785987787026866, -0.05060765560786548, -0.06884461387207981, -0.021000053911020944, 0.10521534768386705, 0.09079040816376843, -0.10932261824597196, 0.2799707649086917, -0.032577632458502835, -0.11524157289595008, 0.08882319900487784, -0.036167245735435186, 0.21537195078396498, 0.08474083554815338, -0.01987198463087681, 0.15753068777322043, 0.08491152114704448, -0.12288951969348896, 0.08883941095724036, -0.05164874419484505, -0.008332628524667476, 0.013105444921746154, -0.08790960122662607], [-0.13333422788907015, 0.03677840109202967, -0.13882334986698627, -0.25752026267692657, -0.08361056043714299, 0.03310924214883985, -0.026988113356996427, 0.12671309406200715, 0.018375349543168894, -0.0766309651947081, -0.043958355047949385, -0.14365413592691786, 0.1085797224705931, -0.13811000860829578, -0.0920407632119269, -0.016028622042862792, 0.00023532644908221489, -0.15026503635097893, -0.09055357952194952, 0.02650406022393187, 0.1129723358996994, 0.034900356209017505, -0.0025809761590854185, -0.1562408733870131, -0.061734234655209046, 0.05214942413110542, 0.10809466698548874, 0.08893759081552546, 0.013807164444560675, 0.12046004666491782, 0.28814607131639636, -0.05938619153826879, -0.07631157953450364, 0.15184829257797214, 0.023546452538541995, 0.011230768842726991, 0.03923743276591256, -0.06544865051849597, -0.10347952847505888, -0.07771475095483107, 0.12459462568310148, -0.14366406646845817, 0.04986546456485497, -0.055768746002550953, -0.035336688871534454, 0.07429509766083332, 0.08439889133578954, 0.034297653786693603, -0.18731196623660062, 0.15709647086757914, 0.13101965171995605, 0.009143683319114727, 0.0010257816959411625, 0.1801449208620155, 0.09472242712937279, -0.0029294403574919637, -0.029233867585114426, -0.019353711101102695, 0.11772320543971655, 0.10399917847066875, -0.16134230114988035, 0.04646423988660639, 0.08641213313776075, -0.15064631659717184, -0.00029647514383226645, -0.1777043606376519, 0.012949283594138687, -0.20832345019129483, -0.06817455237079177, -0.06110659144951346, -0.07088498201426062, 0.14515280169745667, 0.053551056973910376, -0.03995688603234003, -0.09330778408941012, -0.02387763168452323, -0.10291129682993153, 0.0973080004149665, 0.19967660015477862, 0.10531998980821111, 0.03316903455451489, -0.016562878329314596, -0.04051062894614613, 0.17452845726875943, -0.05759356075215347, 0.156109855689575, -0.11315392420201487, -0.02962316543982073, -0.1714056592720786, 0.015923420122828002, -0.1263727621876207, 0.1665049406790442, 0.041227227166106994, 0.05373967468768181, 0.028267844916477, -0.10925408143911378, 0.012411828773382701, 0.18370806878677443, 0.0008554926006310748, -0.10170162016248128, -0.18523426566950363, -0.07133269903920768, -0.17622288975408784, 0.08305173690425974, 0.07811672661822455, -0.08756818272205504, 0.0613981308469426, -0.05764546529569822, -0.004561428277485917, 0.03719555515649784, -0.04439600090394923, 0.04182033486531168, -0.16857280504675518, 0.011747498798796961, -0.0034952022387734353, -0.20463931362481103, -0.18096901927314876, -0.1859523605626927, 0.041430683392395126, 0.012395962687166077, 0.027395757717404032, -0.13263784925081615, 0.11389738106662653, 0.098284121981739, -0.07669630350233284, 0.11760602764537964, -0.02509223967811601, -0.17762050240100316], [-0.16326947661508928, 0.07337234878550057, -0.010404881066897928, 0.08812249464539314, -0.00883731247324133, 0.02676708933607786, 0.21235264229801737, 0.13968490876314008, -0.04328272686104105, 0.03749687247031265, 0.04944454430617895, 0.0761391167496107, 0.007100880518802974, -0.049353185049503624, -0.00036228172365012945, -0.04802871094783759, 0.16833672812397932, 0.12407262388353224, -0.020361501887938824, 0.04282922606938115, -0.016545926423568943, 0.11932411359682121, 0.10488805164179926, 0.0568610832710887, 0.08712642696145259, 0.06605708080415788, 0.1174061853808299, 0.05311313733291978, 0.015190052911452315, -0.05772256235992382, -0.15717507374931822, -0.0027848380506712506, -0.07410555334041295, 0.006000906695712365, 0.11404884241870904, 0.017282467544035316, -0.0415001671109624, -0.08531286248616413, -0.1430135207423932, 0.13328053353574879, -0.17766910189292495, -0.09347830262310605, -0.23132019336970672, -0.03161415757497162, -0.03422845597605816, -0.04042944206294938, -0.006312989997640252, -0.08212650744177591, -0.09136556404887339, 0.1817826413261076, -0.033406294836337086, 0.09076586249467652, -0.08367710426529884, 0.1612728594752087, 0.1514182131007798, 0.02310186822172762, -0.10995315929694834, 0.008700138572766069, 0.0047304500041057155, 0.023962391408949693, -0.09782206161996708, -0.15230001361792947, 0.01623630373820347, -0.0010291316333718413, 0.00020750219193663993, 0.10268005788509676, -0.14751604830313655, 0.10106937159878049, -0.0743227540017318, -0.039522206585005965, -0.08257793632512705, 0.008961985783925163, -0.19058178747999277, -0.05680857202871936, -0.05157565452853529, 0.12639302023631946, 0.015069814378721812, 0.0695518311496303, 0.0005938814386502599, -0.10489003714627146, 0.09072048681832477, -0.08454413420675676, -0.05262433407727582, 0.018209977880956647, 0.09455387894471061, -0.02013845432827442, 0.15105247319832757, -0.05714784150520992, 0.06655892869546319, 0.00036163009507030703, 0.15466718382124198, 0.021440601326098242, -0.18773128180560972, 0.10883352098095077, -0.008154851334052745, -0.05530619110683829, 0.12229647619208389, -0.03313086360295018, 0.05999867431623418, -0.07683833192976774, -0.08361301268279878, 0.18105817605836114, -0.07870327372626858, -0.05847709364174684, -0.17083207918676832, 0.16299822440078232, 0.03979983232950984, 0.02377796334525969, 0.09751384105786284, -0.1329336569334267, -0.054104678191967084, -0.009143773124951071, -0.1548471050728461, 0.1311427126349951, -0.0018429050193367218, -0.032328863625550035, 0.023622548956828353, -0.07525822843367992, 0.004511300381296627, 0.3427538547002493, 0.060468203024580114, 0.16683110596343254, -0.03550831224559203, -0.07515689901309379, 0.03097035893716593, -0.1341704943424035, -0.23069577654457946, 0.07315925050221388], [0.06413381449722294, 0.08338512217530718, 0.00281698731899966, 0.19783726998796625, -0.008732818705761503, -0.05539647407905779, -0.30064987150073263, -0.004716586765324164, 0.08318777850596785, 0.0006861198539497957, 0.11242217344467607, 0.22948811662553914, -0.017335020837719952, 0.12312535595933083, -0.15858525751800245, 0.1031319104356626, 0.00634904803867693, -0.022139049834706406, -0.01633989200064896, -0.015630346833864266, -0.03088029093452499, 0.019867297014966485, -0.01742921340664021, -0.11557924789632029, 0.04170538889921242, -0.06078679483894681, 0.104798661479213, -0.0033826966572380714, 0.012702395332119011, -0.20492319132446665, -0.12566801281681222, 0.09396143935074498, -0.07338167260261784, -0.05324376589989497, -0.027793996726827936, 0.13637425928273425, 0.03741379978015835, 0.13102646033833285, -0.02677477975311914, 0.021317626376639125, -0.12032434553759759, 0.1178031235143372, 0.010864820369485335, 0.004412909879627545, 0.03383155392256595, 0.1446792073920323, -0.021449510648859027, 0.16630389577549062, -0.08515225844037914, 0.04221846079690917, 0.2009218561174876, -0.048981473125860125, 0.024525585344341985, 0.08775050628364339, -0.013789969889870666, -0.15003532761643298, -0.10559593590689563, 0.05809325888538347, 0.08915153199892448, 0.07845553343209963, 0.11464320138678451, 0.0071985194936021665, 0.020823317071100664, -0.15188686591575296, 0.0317328953702337, 0.06126807853910979, -0.05832112948159865, 0.06440016988949113, -0.1815888844517824, 0.07510995977945369, 0.030028432362080117, 0.21106085335880193, 0.1413085536865267, 0.15069803585585295, 0.08173970963681657, 0.0646615613915258, -0.11816313149129286, -0.03350913003517865, 0.18267284706608652, -0.145616444872309, -0.045028183481313, -0.14192340808146706, 0.14509518140321273, -0.056578132854561085, 0.15445343659312924, -0.04137624937192986, -0.05041320801637381, 0.12785291889846653, 0.09388317263937762, -0.27162803092175747, 0.04511407898571997, 0.060016687825229224, 0.020980693090091096, -0.06576580038247748, 0.002840844463958922, -0.03980614809656643, 0.021132302760997545, -0.02023942628610662, -0.062192815823894576, 0.016377044630461458, 0.08024389101843936, 0.02890058923953664, -0.05536423899312313, 0.033625402037041036, 0.10697923918589658, 0.15954041685761902, 0.12075525841594366, 0.053738019335903234, -0.10091240312138866, -0.1365552726920872, -0.020238121371907246, -0.1409184781556163, -0.07847847290606282, -0.017012230475116602, -0.04842104217389033, -0.03279180563104176, -0.13280046272981097, 0.02314667597932105, 0.09965080510669072, -0.05481374677891694, 0.07257553441912135, 0.2662726713718078, -0.00918110301344528, 0.06512100079495287, 0.01967700900873556, 0.09696237292240467, -0.1718649876612095, -0.1056956767945215], [0.014346392807138045, 0.08869625661584651, 0.013052402586494023, -0.16645732509676436, -0.08236132764583952, -0.0794706117597217, 0.03889919450030478, -0.07620389598404273, -0.06808071048007712, 0.10847475766377049, 0.13353162767985902, -0.04132748053360386, 0.042490267234987285, -0.18814837985313415, 0.019832705935534153, 0.11899780497958273, 0.052678170525734924, 0.010106084435747183, -0.038864297347263654, -0.06467920155914018, -0.017908240519380295, -0.15514411382363108, 0.1610458978298244, 0.056421064039481744, -0.010243703421328371, -0.06198047748273389, -0.007033962015774307, 0.07977949422628428, 0.10114478912189467, -0.09036909300657425, -0.09735287601736554, 0.20782299628082754, 0.11365928577156861, 0.07085199408280056, -0.013864624371736975, 0.09240203382627826, -0.12732331758311163, 0.15317684215350405, -0.003577222473716005, 0.07908615021587523, 0.06462177748951763, -0.013157091126192805, -0.017536635509746795, 0.12215831412759831, 0.10264974045825888, -0.17722311199804225, -0.1692405737056458, -0.09462206203561588, -0.08935453982997023, -0.1118525872587231, 0.0272110643262288, -0.046370444713397296, 0.12061246217621702, 0.14528777655170572, -0.0028683237497593088, 0.16834579486728932, 0.0024214310140723196, -0.043479064674990124, 0.006478573929391421, 0.09448600019930664, -0.16144609726998976, -0.020859932222445563, 0.029740566031687128, 0.0363084665238542, -0.036843634332291104, 0.04887857426434713, 0.029212161795086275, -0.05919081134723939, 0.21815986289387745, 0.04395502060313077, -0.033118335017383, -0.05717190334784398, 0.10294089182309159, 0.010205979106406736, 0.254811269781519, -0.043592412295208854, -0.12426069384522896, -0.002769845883360259, 0.017506745883744325, -0.21184506346402962, -0.030916851438148003, -0.036841544138759556, -0.036876353620555045, -0.06302257476306049, -0.13431925430884398, 0.07580380514217576, -0.05838408439896756, -0.10237014524008546, -0.07599342678179075, -0.047232323974695456, 0.01086471247130269, 0.06683389863604884, -0.0953179498015071, -0.0479297397554433, -0.13455077280199745, -0.33922999934223763, 0.015579393073158896, 0.15200035175007434, 0.05220832533528241, -0.050705995614298886, 0.009647914260523575, -0.11748201009950612, -0.012229235803258052, -0.04277092530575761, -0.08527142320673835, 0.04056522298046536, 0.25998671643790566, 0.16654495064347147, -0.007207302132209586, 0.08841146547158618, 0.08627074340696257, -0.06475380256858186, 0.06439040735006152, -0.1440992098506151, -0.08052983918515823, 0.02387528704061312, -0.04147876623571258, 0.17564786430302215, 0.06480404345553452, -0.03820381211659721, -0.04705797131134823, 0.018697060821328368, -0.10555312886421826, 0.05956119532945486, -0.13753019499454755, 0.06230101959607396, -0.016459473198041277, 0.041461351809126495], [-0.10125859253379639, 0.02449852070881173, 0.2412347741512654, -0.04572167524606647, 0.03173998603290244, 0.15055669497573088, 0.07617041448601343, 0.04318854841446307, -0.10136892725211916, -0.12775883722966505, 0.005343244068245902, -0.04632358553132021, -0.0019058213775291117, 0.020565667401951704, -0.06764278388428852, 0.049410302601391946, 0.18585561885911028, -0.10093409873804438, -0.046954635852091114, -0.004961065867999778, 0.11404596739405914, -0.11863820006817019, -0.10651481043840816, -0.21636610128163622, -0.04403622132138493, 0.06801457660218328, 0.10652247089781407, 0.035715366130773175, -0.06009569793824571, 0.07064716137023735, 0.02043185906161156, -0.19207055989299301, -0.1228094832615539, 0.1511865305196297, 0.03222050829752719, -0.13747943885085798, 0.08199531080617849, 0.10614349597626392, -0.04350340294596921, 0.06576820963867856, -0.3740100637951779, 0.09735767951881576, 0.11751553919198753, -0.11247027147637333, 0.02820853995153045, -0.03381205430474389, -0.010252948077082734, -0.04248804445350682, -0.1332295466854821, 0.18904037030816556, -0.031031084957921652, 0.010475504426223024, -0.10094005802514316, -0.10368671611243468, 0.04125984150754999, 0.052639208015111294, 0.08779241693247447, 0.11037740024936882, -0.021020754050076196, -0.044420306399294895, 0.07468138328489334, -0.06374392034304348, 0.08717584958978293, 0.03745002872422891, 0.11550264345834976, 0.06703916888478309, -0.10544458238911605, -0.08656336415860265, 0.07324852970073881, 0.19070558424177736, -0.13228117007830184, 0.002321160432527294, 0.02816745574804912, -0.1525777511865547, 0.047812499636301325, -0.009312279204743793, -0.20965574812156482, 0.16217279782495952, -0.08632082190710727, -0.1282503414295042, 0.04201416222116938, 0.05574867959048965, 0.07364114036962718, -0.03860033622093118, -0.0010914337890909746, -0.07308067631738654, -0.1310197305632208, 0.10791306490542359, -0.010276268501779361, -0.018231425542295645, -0.1999267591995332, -0.017837110428033612, -0.08424944970914493, -0.01746136531498163, -0.0219244151856873, -0.04464647913329629, 0.09388386429111392, 0.04470541523241566, 0.11271545144715461, -0.13248273699597243, -0.06489559274478152, -0.004028081832228678, -0.040663896990343416, -0.007925772549673787, -0.1182103399308323, -0.07161780572622409, -0.1641553954852013, -0.0890025551773239, 0.06941767203920138, -0.021420688476595028, 0.15057532387575082, -0.05955338743056791, 0.011907108087232943, -0.12132523301524184, 0.2600671870417404, -0.01786205987004569, 0.08296298402994151, 0.041338502086715315, -0.05838788148392763, -0.13309012815356902, 0.015614312453880737, -0.05567897443633333, -0.015550430149173192, 0.06513020587973822, 0.007824115584037943, 0.037711629736859556, 0.01500465760557719, -0.1467249332650508], [0.1396062195701339, 0.11758522964347529, -0.11361648542567174, 0.05053006114271711, -0.06620242701618574, -0.07469163370632707, -0.0004841661335047561, 0.17476682304976987, 0.10579575614818851, 0.06052213583318579, -0.11506056357540509, 0.2554449418751378, 0.08737310456606763, -0.23488374199151119, 0.03994743352084918, -0.04886947159180835, 0.04099823559489672, 0.04006403668095266, -0.09185190764701048, 0.18258857523076943, 0.01997846214194241, 0.09413479065104091, 0.1351423564748203, -0.07381575979519864, -0.09117684848065236, 0.11219073488477663, 0.13928374327568568, -0.13770185707911373, 0.2011243186157662, -0.023550331433385294, 0.06917845285123844, 0.056438820910472656, -0.09713423198333271, -0.08640481389472265, -0.20835923392949252, -0.1151150135626561, -0.14824759607426238, 0.004019051577029377, 0.1369402152722082, -0.002714493066647462, 0.033885416218273665, 0.07780035433679287, 0.06797094410202996, -0.03858315001115015, -0.14633450608335005, -0.04298055100406509, 0.006295935526390484, -0.08716452127708096, 0.036196071070104856, -0.02927120959421425, 0.06218215275108925, -0.08032394761848251, -0.09219676593093838, 0.17740563377039373, 0.002875623771368626, 0.055296384939553626, -0.10984222528921528, -0.0377264455482126, 0.0682169482807615, 0.15656158596460848, -0.07244850747995447, -0.08029174114389669, -0.0022668940344347612, -0.1524395149748862, -0.003013330647762648, -0.006472838461539308, 0.07247491503292604, 0.1414609742688971, 0.056984431780009094, 0.07415510509596894, 0.005227895113430126, -0.03597445764761596, -0.19959768691567645, -0.08862208191746167, 0.02172666846933302, -0.1645593723789992, 0.024288982278327022, -0.04008347102679511, -0.10215598525816903, -0.047002431665500305, 0.07287815212615996, 0.08855011096194776, -0.19370214074492395, -0.014948401214867044, 0.09138846582835071, -0.025789485960935735, 0.010881527091421338, -0.14954108752602696, -0.04800336568182954, 0.18287754293882255, -0.07880680345153492, -0.14406323431960175, 0.014947175855840595, 0.0788629333065739, 0.11938104906252561, -0.051772264212527064, 0.02224755766287195, 0.05443548782853931, 0.06492105278342117, -0.05472027440095443, 0.1712724930895694, -0.06872970225507312, 0.07078721586931351, -0.0021911236145525565, -0.0587218564024521, -0.06428512989625677, -0.058634691092023405, -0.04468710650532969, -0.10188855993559093, 0.06974097032117701, -0.07035153156202222, -0.061502084870049434, 0.04886905912082334, -0.010796194313364836, -0.14219036352789122, -0.09360094985442666, -0.019655724442099343, -0.057498783736746786, 0.07504825372530399, -0.07644020289908127, -0.09671270710432116, -0.1010546208778625, 0.04066572469576391, 0.048347172608573324, -0.16724445875708807, 0.062207519651810254, 0.08609732704959466, -0.1690997761809049], [-0.06904314293609605, 0.1428892424357976, 0.10061017060252493, 0.002479265925104204, 0.05012493962894318, 0.21120196236200744, 0.05027969734526219, -0.12208088614188922, 0.13649389996008265, -0.08709388906246185, 0.09939022358478347, 0.06562706609568889, 0.08895135530057614, 0.15409329754091575, -0.1465914328507952, -0.006958855493879726, 0.19460495025458788, 0.09763817445199474, 0.017715833734131294, -0.10231731300289502, 0.010672049295195765, -0.09118812985440117, -0.1468366956464426, 0.057647870305855255, 0.0065305605338348074, -0.07735128027607115, 0.039494818896224776, -0.05038898877881488, 0.1779559084207381, -0.003057244436995809, 0.1577088212470096, -0.08128021008388903, 0.06133491654036358, 0.18436999764775683, 0.027109098221586067, 0.11364476270515152, -0.1738331868174651, 0.07071347443209272, 0.003038613146488247, 0.07650019773845078, 0.08676652180131121, -0.22562501178104188, -0.04436027396060996, -0.0670023280599462, 0.015216419000569829, -0.1940533397169717, -0.10905086674816995, 0.10019207035276677, 0.017689244605236864, -0.10880145414166471, -0.025321736705546813, 0.10982730577258455, -0.1839566785967981, -0.021142861354225988, -0.02296632432908108, 0.01869794144690471, 0.05037794661678846, 0.1910342501588043, 0.055378119442661126, -0.05874814673275585, 0.12579499429459307, -0.08586683980979283, 0.04361870953416943, 0.15714630513097227, 0.1077314881367669, 0.08110896766545228, -0.22315376387217634, -0.010100251730537644, -0.0587375066549224, 0.13248682714787205, 0.08406484781380935, 0.026110618156295746, 0.07944416483012173, -0.06496164865120335, 0.06342845103835339, 0.009500266247483307, -0.16832068070148176, 0.034404613799492396, 0.07071580306332685, 0.11934145851406341, 0.05273885275650071, 0.10067039239223363, -0.17323273320832747, -0.037341216285032175, -0.014251039708016916, -0.03297423647625178, -0.00890421194964997, -0.057739624873876794, 0.07361654792450188, -0.09912055484724833, 0.012517461169628452, 0.007315271317349839, 0.014393723437953655, -0.0947724317725066, 0.1399229924685351, -0.022612372635453487, -0.14388541648467842, 0.08013010182970273, -0.00033314459337048876, -0.009694155765742592, -0.009587145005100089, 0.03954369639302893, -0.005324304212791322, -0.07734995824944584, -0.1419185507893644, 0.030345193259462958, -0.1518206705189435, 0.11197077252488695, -0.09538609617541668, -0.0849614021965846, -0.09818996930473792, -0.13630776681557052, -0.07725985596624939, -0.028362545225651105, -0.232760404270115, -0.24452274907787014, -0.07158649273235085, 0.08833968424560665, -0.13004398566000827, -0.007633908407864096, 0.14305568155799636, -0.1323408583223881, -0.04383561661667591, -0.07431524811887656, 0.08919675819978966, 0.04638727652285196, 0.061766084673478716, 0.24964170627598536], [0.1629475222809067, -0.009904470169040015, -0.02019919552581609, -0.14488258886697689, -0.17141646874325453, -0.004964157077787357, -0.12993954633825253, 0.06253554293826843, -0.07917192877228303, -0.05829433945049774, -0.1552680541059164, 0.21101535242189026, 0.07588295490231017, -0.07099302410695836, 0.015114703214615631, 0.13230913079811862, -0.09278250742269077, 0.19065986827061185, -0.10321748944127938, -0.01773614832714969, -0.16503783956471652, -0.2538511126054627, 0.10100907805358227, 0.008570209201339347, -0.17338609803145302, -0.16406012051299412, 0.11453613996569152, -0.015059510852272102, 0.14314432470965785, 0.06365867682363026, -0.006656284755383753, 0.0032329980768256265, -0.055507364724664734, 0.00977861092290082, -0.006098498200988444, 0.08375166726589024, -0.016341844107608007, 0.08235554918687382, 0.09206322907748946, 0.018076260698238037, -0.13129683339991835, -0.016047670605228336, -0.19060746459861685, -0.12066216213524694, 0.07304183331603019, 0.049489278942753456, -0.0003208878434988741, -0.030243315699742687, -0.07394009462202819, -0.05128120829418447, 0.09652515172740049, 0.047667925735983364, -0.13712164935406732, 0.019885284256455468, 0.013996282968821109, 0.1648673473378084, -0.17575517494840956, -0.07831295390965803, 0.09736258362164425, -0.1110932224412242, 0.23856216323424395, -0.11789442221216165, 0.0029122145219122927, 0.05595475579549989, 0.08810371425282457, 0.07152084847550455, -0.04620775362855747, 0.09132070056428282, -0.07546524877976944, -0.05349771426628325, 0.04566424611747518, 0.15095769579226637, -0.022817123741028802, -0.08903415323551733, 0.1209771907313229, -0.126480003249928, 0.18381814890366824, -0.09840826884582234, 0.06409484468212977, 0.09266912255245402, 0.0785034054462824, 0.02270026376399706, 0.004952955186798744, -0.16531805013943232, -0.07808196377123294, 0.07246446873555781, 0.0663369166617405, -0.10378813056109731, 0.034697901989508124, 0.0252030988590127, 0.17509188424532657, -0.04184011597362883, -0.051985726813631374, -0.09234429683261504, -0.09992784708194048, 0.03749483615610898, -0.07043411390789783, 0.10747038579701736, -0.06272990613145606, 0.1533995675203417, 0.041772545792310906, 0.025838362639985065, -0.11504285628334637, 0.032911418619900205, 0.0045521976523426435, 0.06320826033762621, -0.051084729825839614, -0.14536298763063146, 0.027522159888490594, 0.01397872466992235, 0.024389236053274525, 0.10056501624766825, -0.09396406327956308, -0.23817501376950628, 0.04750270023469365, 0.04059125202031037, -0.047705630581950126, 0.01705982015638863, -0.10477808097252331, -0.21061972119965278, -0.1692911448385612, 0.004236113987702398, 0.13827104147937164, -0.03895183883050923, 0.08139379101673243, -0.059433197147457054, -0.005543902287903261, 0.07965607238585666], [0.013317988510928518, -0.054167834870026646, -0.08653023635241723, -0.009252812492373304, 0.11821020927663446, -0.15706545936824717, 0.08593307615266596, 0.028364699279778683, -0.09691122669007304, -0.00183737291210248, -0.02040354467315335, -0.09477403648854546, -0.05394351098536844, -0.12562873007868874, -0.2071523587410624, 0.01512364376599327, 0.10444894500508031, 0.16333490613079688, -0.11113785478558912, 0.21473651651303305, 0.15263067331753782, 0.1423475034053949, -0.07856663925669523, -0.05622516250814535, -0.19383574178994445, 0.01911592367265784, -0.03936029239222302, 0.016179068805163743, -0.08345180353080241, 0.06728704681422598, 0.03431881096157692, -0.11441230796877207, -0.004588794551128885, 0.028468450098585753, 0.20084415562115715, 0.009578084709900514, -0.094040899715437, -0.03162630517722318, -0.0031223465872419077, -0.013359528863689452, -0.184147189301925, -0.033157689521452004, -0.0693308894624811, -0.02605129612316666, 0.21209624053489395, -0.08322906073812125, 0.1437941004100138, 0.11606181443434915, 0.06834978189755714, 0.000311041837128893, 0.06543934208908858, -0.044991977821174756, -0.054645913141233717, -0.07478616721418614, 0.027390159094715674, -0.020977058197588848, -0.023958506599861658, 0.14202288127147564, -0.07047485117824592, 0.07353648953231096, -0.05219276171421398, -0.15921950257634931, -0.14259504478403842, -0.049155237264986565, 0.06296114897054388, 0.06417863943296603, -0.02406871526741035, 0.06184217088551215, 0.007626311007575626, -0.026149031923805112, 0.08547312664723766, 0.11878939003598135, 0.1016027392598705, -0.030687296098864378, 0.05677076278581439, -0.21292456715314417, 0.01950669227332314, 0.03610023657352555, 0.015197519895579154, -0.022227272995506198, 0.13047731862522596, -0.009323770074101536, -0.013953793548613924, -0.024093674651581024, 0.10341053793170707, -0.0292459623789675, -0.08343493679865688, -0.010875854160691915, 0.1707713757875415, -0.03006861148695201, 0.06157716342353539, -0.02781107388159712, -0.02767468147065723, -0.05608413837692965, -0.12163040593454202, -0.010978162841011524, 0.07184557525704745, 0.15761929635686625, 0.04418694962535555, -0.08168610783121018, 0.07455045999103653, 0.045402917385838265, 0.13983631909398075, 0.20896104559969195, 0.12146077552140276, -0.039275819876120784, -0.01592295437005033, 0.11579405294066339, -0.0507693135936576, -0.014048346443434195, 0.06343402407252743, 0.10706060545877771, 0.022291076922189033, -0.2892519821999137, 0.03393659646811908, -0.031204919533210973, -0.09759209971282051, 0.002413016612085244, 0.11204641498590484, -0.11298772293938264, 0.15899229913972782, 0.09787301007225037, 0.09341636251163596, -0.08147085942103098, -0.02512424471785196, -0.038283487169087776, 3.40957933682014e-05, -0.006220480065990364], [-0.03173488808190276, -0.017792734612129258, -0.021162031696117755, 0.0267483863058567, -0.16518170353950992, 0.048657834882749114, 0.1697271698382945, 0.10725008472837533, -0.09458972264573236, 0.10446080237103582, 0.22896278525990424, -0.024255625950226258, 0.07210319212928966, 0.22993803999795928, 0.10302956275936921, 0.15507206012024957, -0.10952255555087331, 0.023562085796756577, 0.03919691026384513, 0.05642871292929024, 0.07895075464057603, 0.01561750572599972, -0.13123941360108193, 0.10662724146272543, 0.0378860328651444, -0.11786166295998601, 0.07589958208274958, 0.05529800124656083, 0.05370345476746549, -0.02868352081945604, 0.1634405644919902, 0.05712266310085558, -0.07899540601421902, -0.15427579404376793, -0.07673321827911168, -0.23696232933022143, -0.02605598440471242, 0.012895705059199476, -0.12076664347223254, -0.054544359083547024, 0.1553282650144763, 0.010729133565966206, 0.15353435440347976, -0.018495141706103585, -0.0176782713326495, -0.21992540453277198, 0.07292887472028639, 0.11005582400486916, -0.03423680438532295, -0.031030422533007362, 0.08130363779939603, -0.07362970898953762, -0.07823243190080753, 0.03170981661632435, -0.06062513479848161, 0.06110578840796482, -0.09203095152494392, 0.1509508919131059, 0.0656463684255187, 0.0065851179100147195, -0.08736306325459504, -0.10577538998724863, -0.08972370306825797, -0.14322032991369757, 0.13404303179776292, 0.0342074839076771, 0.1070628330433166, 0.1739065035386262, 0.1306606023456832, 0.04496167914951324, -0.04110504458323922, 0.07492995550061997, 0.021113776911919718, -0.02606511406966508, -0.05151983709538149, 0.10792167763922339, 0.14774627866530685, -0.027510872379022434, -0.04370077128368604, 0.06981697387398562, -0.06351763985362037, 0.060367668695708226, 0.17369296058777373, -0.041783443609455184, 0.0024513232204399077, 0.19896930775151334, -0.037316831298264005, 0.014103673154855091, -0.09418154744100066, -0.07028345962332642, -0.13788369718806728, 0.2925249584070652, 0.057175199121056446, -0.004587554920336953, -0.10570642914734951, -0.18246930632181338, 0.02417382882925378, -0.014515181911507698, 0.05019926638574678, 0.06923288410819711, 0.10122750427570744, -0.004217711271655591, 0.0622010464762692, -0.04075361282019094, -0.08514463986147242, -0.033818326875020975, 0.07689677404625889, 0.0606497668529433, -0.0012613142334174173, 0.03224277228710904, 0.1607508342510072, -0.18024101084963212, -0.12550678964572015, -0.0013033759410976406, 0.07003573371771821, -0.021527323454051644, 0.09030884548690236, -0.30074372044435593, -0.23304672576531452, -0.05678032876795234, 0.26673220888841764, -6.835257171676115e-06, -0.22414489678050936, -0.03600297328238711, 0.0617493881567841, 0.09622223812117248, 0.047054891119476736, -0.023580420538372476], [0.06787892942117894, 0.11536180315824916, -0.05547328058313599, -0.012360076142695244, -0.013609770601017736, -0.1705542406380603, -0.12570964242400484, -0.23186249878410423, 0.008433792517812573, -0.02976732522909799, -0.03390328756905231, -0.0034403749196223487, 0.05192691885994521, -0.06725830976695406, 0.11736112257517073, -0.15922294876526424, -0.0013649200799110417, -0.009834549020237667, 0.08498770749115638, -0.04949857099055346, 0.10687308583357491, -0.023386641061453026, -0.01018051067202431, -0.014907716273383682, 0.0698096242470166, 0.08531481644514044, -0.060474079614361756, -0.14088909619684353, -0.09811016161982916, 0.016518306800196978, -0.0016645855512533005, 0.014093267071398553, -0.07251721300578094, 0.07957408150919008, -0.017643854126096977, -0.16334345298025865, 0.015534977981514295, 0.05474259983284916, 0.014376031121688651, 0.013022097921572884, 0.022717195148006148, -0.10537291281165362, 0.15317530244259295, -0.03264935837443563, 0.14668451704759208, -0.05541288675149713, 0.09666753728401994, 0.02401796487274639, 0.010031443363455472, -0.0938791456884386, 0.12058185564171596, 0.04189720107584767, -0.009025006997557641, 0.12073749867680005, 0.008858019739351672, 0.22098055892906232, 0.1016677119951385, -0.03307090758070693, 0.13583818878710055, 0.006085638452785779, 0.2005891440375175, 0.008165836317712996, -0.00792093656717757, 0.009396829975542772, 0.03995066830779558, 0.15493112604678524, 0.02928569206424722, -0.010671492500497912, -0.049346002106869596, 0.07856812957685705, -0.05543451306135318, -0.11688303219673227, -0.09422464403062603, -0.046492760438437, -0.012443437140883638, 0.10531720698562863, -0.0577243551742956, 0.11971284524677604, -0.1637706287146901, 0.26346028008384065, -0.15864239252200946, 0.019808703849313755, -0.021758001739151097, -0.07853147218429328, 0.067640868454499, 0.1057214164194444, -0.017218611017656562, 0.12093849119638866, 0.006405769200289954, -0.10637799667446653, -0.007918750580583679, -0.05274960662887698, 0.046021477160510346, -0.03991668922613497, -0.007418319534933173, -0.10853574422315326, 0.10693564681247264, -0.03556284234610499, -0.10694771107880592, 0.2631474301847841, -0.14129743739220388, 0.05074303058021132, -0.2163665561003783, 0.030852274964082545, 0.018811352001824808, -0.02523779686841728, -0.13635440104546312, -0.08585309451529441, -0.08065607745013284, -0.11741236291905047, -0.09480458444663585, 0.14351258913042259, 0.03912090121732649, 0.13308276503388058, -0.09888421037221284, -0.04313032376956794, -0.17370495544468761, -0.1190455732292972, -0.029111314769557885, -0.04206063528726665, 0.17773537755210145, 0.010804657347187042, -0.02650998837424731, 0.045946259207941605, 0.002687855274239262, -0.10857035365978492, -0.06268877439627492, 0.13989568826273072], [0.13037877009643817, 